{"learner":{"attributes":{"scikit_learn":"{\"_estimator_type\": \"classifier\"}"},"feature_names":["ID","Age","Experience","Income","ZIP Code","Family","CCAvg","Education","Mortgage","Securities Account","CD Account","Online","CreditCard"],"feature_types":["int","int","int","int","int","int","float","int","int","int","int","int","int"],"gradient_booster":{"model":{"gbtree_model_param":{"num_parallel_tree":"1","num_trees":"66"},"iteration_indptr":[0,1,2,3,4,5,6,7,8,9,10,11,12,13,14,15,16,17,18,19,20,21,22,23,24,25,26,27,28,29,30,31,32,33,34,35,36,37,38,39,40,41,42,43,44,45,46,47,48,49,50,51,52,53,54,55,56,57,58,59,60,61,62,63,64,65,66],"tree_info":[0,0,0,0,0,0,0,0,0,0,0,0,0,0,0,0,0,0,0,0,0,0,0,0,0,0,0,0,0,0,0,0,0,0,0,0,0,0,0,0,0,0,0,0,0,0,0,0,0,0,0,0,0,0,0,0,0,0,0,0,0,0,0,0,0,0],"trees":[{"base_weights":[-0E0,-1.8060426E0,1.3476204E0,-1.985246E0,8.163265E-3,4.520325E-1,1.8107309E0,-5.975166E-1,-1.1428572E0,-9.9029124E-1,7.123288E-1,-5.344353E-1,1.8582677E0,8.2722515E-1,5.987934E-1,-6.666667E-2,-1.3043479E0,-8.3333336E-2,-1.661017E0,1.0866141E0,-4.434783E-1,-8.747253E-1,3.6363635E-2,1.1111112E0,5.944316E-1,-7.352941E-1,1.664E0,-4.666667E-1,-6.666667E-2,7.5E-1,-4.2000002E-1,-6.666667E-2,-5.3333336E-1,1.3043479E0,-7.5E-1,-9.811321E-1,5.1428574E-1,1.7446809E0,-3.1034482E-1,1.4461539E0,-2E-1,-1.5862069E0,-9.756097E-2,1.7073171E0,-1.5E-1,-6.666667E-1,4.8571432E-1,-2.5E-1,1.4951457E0,1.5E-1,-4.0000004E-1,-1.0526316E-1,-1.1051213E0,-5.263158E-1,4.2000002E-1,5.4418606E-1,1.5E-1,-1.0361446E0,9.150327E-2,-3E-1,1.6721312E0,-8.5714287E-1,2.4000001E-1,-1.6363637E-1,-1.6862745E0,-4.7368425E-1,3.283582E-1,1.7617022E0,4E-1,-3.3333337E-1,-0E0,-3.3333337E-1,1.6363637E-1,-0E0,1.655914E0,-1.030303E0,1E0,-1.4913294E0,-7.5247526E-1,2.4000001E-1,-4.1538465E-1,-5.1428574E-1,-6.440678E-1,6.2068963E-1,-1.4146341E0,5.368421E-1,-0E0,-3.3333337E-1,-6.666667E-2,-5.4545456E-1,-1.6363637E-1,8.679245E-1,-4.0000004E-1,-0E0,1.7922078E0,3.818182E-1,-3E-1,2.4000001E-1,-3E-1,1.7241379E0,1.20000005E-1,1.20000005E-1,-1.4074074E0,-1.5E-1,1.3333334E0,-0E0,-1.6433121E0,-2.0408164E-1,-1.2222222E0,-4.7368425E-1,-1.8181819E-1,-8.695652E-2,1.5294118E0,5.454546E-2,-5.294118E-1,-3.529412E-1,1.3E0,5.590244E-1,1.0666667E0,5.5200005E-1,7.5E-1,-4.909091E-1,-6.666667E-2,-0E0,4.8000002E-1,-3.3333337E-1,6.666667E-1,-5.675676E-1,-9.6E-1,1.5384616E-1,-4.0000004E-1,-1.4157304E0,-2.6086956E-1,-1.0588236E0,3.2258064E-1,8E-1,-1.1515151E0,5.4545456E-1,-5.454546E-2,-3.6E-1,1.6363637E-1,1.4117647E0,1.20000005E-1,-2.0000002E-1,4.56E-1,4.0000004E-1,-1.5E-1,3.6E-1,-6.666667E-2,2.5E-1,-1.3684211E0,-4E-1,1.2592592E0,-1.7241379E0,-7.4285716E-1,5.714286E-1,-3.2307696E-1,-0E0,-4.1538465E-1,1E0,-3.818182E-1,-5.714286E-1,1.3333334E0,-1.4285715E0,6.666667E-2,4.8000002E-1,-0E0,3E-1,-3E-1,-4.9411768E-1,1.5E-1,5.714286E-1,-1.2258065E0,-0E0,4.434783E-1,-1.5E-1,-5.3333336E-1,1.20000005E-1,-1.0344827E0,-6.666667E-2,3.3333337E-1,4.1052634E-1,-6.666667E-2,-3.3333337E-1,6.666667E-2,5E-1,-0E0,-0E0,-5E-1,3.75E-1,-2.5E-1,5.454546E-2,-5E-1,-4.1052634E-1,-2.857143E-1,-3.818182E-1,3.3333337E-1,1.20000005E-1,-3E-1],"categories":[],"categories_nodes":[],"categories_segments":[],"categories_sizes":[],"default_left":[0,0,0,0,0,0,0,0,0,0,0,0,0,0,0,0,0,0,0,0,0,0,0,0,0,0,0,0,0,0,0,0,0,0,0,0,0,0,0,0,0,0,0,0,0,0,0,0,0,0,0,0,0,0,0,0,0,0,0,0,0,0,0,0,0,0,0,0,0,0,0,0,0,0,0,0,0,0,0,0,0,0,0,0,0,0,0,0,0,0,0,0,0,0,0,0,0,0,0,0,0,0,0,0,0,0,0,0,0,0,0,0,0,0,0,0,0,0,0,0,0,0,0,0,0,0,0,0,0,0,0,0,0,0,0,0,0,0,0,0,0,0,0,0,0,0,0,0,0,0,0,0,0,0,0,0,0,0,0,0,0,0,0,0,0,0,0,0,0,0,0,0,0,0,0,0,0,0,0,0,0,0,0,0,0,0,0,0,0,0,0,0,0,0,0,0,0,0,0],"id":0,"left_children":[1,3,5,7,9,11,13,-1,15,17,19,21,23,25,-1,-1,27,29,31,33,-1,35,37,39,-1,41,43,-1,-1,45,-1,-1,-1,47,49,51,53,55,57,59,61,63,65,67,-1,69,-1,71,73,-1,-1,75,77,79,-1,-1,-1,81,83,-1,85,87,-1,-1,89,-1,91,93,95,-1,-1,-1,-1,97,99,101,103,105,107,-1,-1,-1,109,111,113,-1,-1,-1,-1,-1,-1,115,-1,-1,117,-1,-1,-1,-1,119,-1,-1,121,-1,123,125,127,129,131,-1,133,135,137,-1,-1,139,141,-1,143,-1,145,-1,-1,-1,-1,-1,147,-1,149,151,-1,153,155,157,159,161,163,-1,-1,-1,-1,165,-1,-1,-1,-1,-1,-1,-1,167,169,171,173,175,177,179,-1,-1,-1,181,-1,183,185,187,-1,-1,-1,-1,-1,-1,-1,189,191,-1,-1,-1,-1,-1,193,-1,-1,-1,-1,-1,-1,-1,-1,-1,-1,-1,195,-1,-1,-1,197,-1,-1,-1,-1],"loss_changes":[3.8175088E3,2.179226E2,3.717362E2,1.0515137E0,4.3768894E1,4.2755887E2,1.0616077E2,0E0,7.508621E-1,1.552582E1,3.1532858E1,3.5285854E1,9.485931E0,1.2608757E2,0E0,0E0,1.217391E0,1.4216667E1,2.0828629E0,1.3674854E1,0E0,1.7316856E1,4.1261257E1,9.184616E0,0E0,1.8295527E1,6.7122955E0,0E0,0E0,1.0928572E1,0E0,0E0,0E0,8.900063E0,3.5833335E0,1.1395096E1,8.801504E0,1.0613632E-1,1.7011164E1,1.0654728E1,3.9714286E0,5.903244E-1,1.3452953E1,3.6678772E0,0E0,1.111111E0,0E0,3.3459594E0,6.189583E0,0E0,0E0,1.5599681E1,1.1509872E1,6.5149794E0,0E0,0E0,0E0,4.412964E0,3.1364347E1,0E0,2.992237E0,3.174603E-1,0E0,0E0,9.269142E-1,0E0,1.6175163E1,3.1573334E0,5.8545456E0,0E0,0E0,0E0,0E0,3.6E0,1.3024864E0,5.0127935E0,4.166667E0,9.802879E0,1.2759682E1,0E0,0E0,0E0,6.0870967E0,1.8781551E1,6.049303E0,0E0,0E0,0E0,0E0,0E0,0E0,7.4482784E0,0E0,0E0,9.9594116E-1,0E0,0E0,0E0,0E0,1.0748215E0,0E0,0E0,1.4680138E0,0E0,2.1333332E0,4.444444E0,4.8507004E0,1.0107798E1,4.6534767E0,0E0,5.207521E0,1.720896E1,6.631014E0,0E0,0E0,3.88877E0,4.4117737E-1,0E0,6.906666E0,0E0,3.5833335E0,0E0,0E0,0E0,0E0,0E0,2.0444446E0,0E0,6.519474E0,1.2442165E1,0E0,3.3365135E0,4.5207834E0,1.4660635E0,9.648094E0,8.076191E0,3.4574308E0,0E0,0E0,0E0,0E0,2.2588234E0,0E0,0E0,0E0,0E0,0E0,0E0,0E0,4.75E0,5.769348E0,1.1730876E1,1.8615131E0,6.322098E-2,3.3300495E0,1.7460316E0,0E0,0E0,0E0,3.005848E0,0E0,1.7460316E0,3.333333E0,2.380952E0,0E0,0E0,0E0,0E0,0E0,0E0,0E0,4.214286E0,5.1124144E0,0E0,0E0,0E0,0E0,0E0,1.4218307E0,0E0,0E0,0E0,0E0,0E0,0E0,0E0,0E0,0E0,0E0,0E0,6.982323E0,0E0,0E0,0E0,2.1142857E0,0E0,0E0,0E0,0E0],"parents":[2147483647,0,0,1,1,2,2,3,3,4,4,5,5,6,6,8,8,9,9,10,10,11,11,12,12,13,13,16,16,17,17,18,18,19,19,21,21,22,22,23,23,25,25,26,26,29,29,33,33,34,34,35,35,36,36,37,37,38,38,39,39,40,40,41,41,42,42,43,43,45,45,47,47,48,48,51,51,52,52,53,53,57,57,58,58,60,60,61,61,64,64,66,66,67,67,68,68,73,73,74,74,75,75,76,76,77,77,78,78,82,82,83,83,84,84,91,91,94,94,99,99,102,102,104,104,105,105,106,106,107,107,108,108,110,110,111,111,112,112,115,115,116,116,118,118,120,120,126,126,128,128,129,129,131,131,132,132,133,133,134,134,135,135,136,136,141,141,149,149,150,150,151,151,152,152,153,153,154,154,155,155,159,159,161,161,162,162,163,163,171,171,172,172,178,178,190,190,194,194],"right_children":[2,4,6,8,10,12,14,-1,16,18,20,22,24,26,-1,-1,28,30,32,34,-1,36,38,40,-1,42,44,-1,-1,46,-1,-1,-1,48,50,52,54,56,58,60,62,64,66,68,-1,70,-1,72,74,-1,-1,76,78,80,-1,-1,-1,82,84,-1,86,88,-1,-1,90,-1,92,94,96,-1,-1,-1,-1,98,100,102,104,106,108,-1,-1,-1,110,112,114,-1,-1,-1,-1,-1,-1,116,-1,-1,118,-1,-1,-1,-1,120,-1,-1,122,-1,124,126,128,130,132,-1,134,136,138,-1,-1,140,142,-1,144,-1,146,-1,-1,-1,-1,-1,148,-1,150,152,-1,154,156,158,160,162,164,-1,-1,-1,-1,166,-1,-1,-1,-1,-1,-1,-1,168,170,172,174,176,178,180,-1,-1,-1,182,-1,184,186,188,-1,-1,-1,-1,-1,-1,-1,190,192,-1,-1,-1,-1,-1,194,-1,-1,-1,-1,-1,-1,-1,-1,-1,-1,-1,196,-1,-1,-1,198,-1,-1,-1,-1],"split_conditions":[9.6E1,2.9282477E0,2E0,2.840451E0,8.3E1,3E0,1.16E2,-5.975166E-1,1.605E3,1.59E3,4.125263E0,2E0,1.14E2,2.410253E0,5.987934E-1,-6.666667E-2,8.3E1,3.5733228E0,3.3E1,1.47E2,-4.434783E-1,9.5665E4,7.7E1,2.644E3,5.944316E-1,1.06E2,6.3E1,-4.666667E-1,-6.666667E-2,2E0,-4.2000002E-1,-6.666667E-2,-5.3333336E-1,9.22E2,9.0304E4,4.71E2,4.703508E0,1.68E2,2.840451E0,2.9E1,3.735E3,9.88E2,3.3E1,4.628E3,-1.5E-1,1E0,4.8571432E-1,2E0,3.0315034E0,1.5E-1,-4.0000004E-1,2.81E2,2E0,9.5819E4,4.2000002E-1,5.4418606E-1,1.5E-1,9.373267E-1,5.617186E0,-3E-1,5.7E1,3.2E3,2.4000001E-1,-1.6363637E-1,9.4792E4,-4.7368425E-1,5.5E1,2.81E2,9.065E4,-3.3333337E-1,-0E0,-3.3333337E-1,1.6363637E-1,4.019E3,3.5E1,3.2E1,4.4E1,1.07E2,1E0,2.4000001E-1,-4.1538465E-1,-5.1428574E-1,1.31E3,4.7E1,9.1605E4,5.368421E-1,-0E0,-3.3333337E-1,-6.666667E-2,-5.4545456E-1,-1.6363637E-1,9.2811E4,-4.0000004E-1,-0E0,1.69E2,3.818182E-1,-3E-1,2.4000001E-1,-3E-1,3E0,1.20000005E-1,1.20000005E-1,2.18E2,-1.5E-1,3.3179379E0,9.1367E4,3.75E3,6.0295825E0,1.66E2,-4.7368425E-1,2E0,2.621E3,9.3003E4,5.454546E-2,-5.294118E-1,4.2E1,3.2E3,5.590244E-1,3.4E1,5.5200005E-1,3.6209815E0,-4.909091E-1,-6.666667E-2,-0E0,4.8000002E-1,-3.3333337E-1,9.2599E4,-5.675676E-1,4.001E3,3.924448E0,-4.0000004E-1,3.781E3,4.125263E0,9.136E4,2.699844E0,1.169E3,4.505674E0,5.4545456E-1,-5.454546E-2,-3.6E-1,1.6363637E-1,5.1E1,1.20000005E-1,-2.0000002E-1,4.56E-1,4.0000004E-1,-1.5E-1,3.6E-1,-6.666667E-2,9.136E4,9.504E4,2.284E3,3.3E1,9.0054E4,3.962E3,3.0315034E0,-3.2307696E-1,-0E0,-4.1538465E-1,1E0,-3.818182E-1,3.7E1,1.43E2,3.1033356E0,6.666667E-2,4.8000002E-1,-0E0,3E-1,-3E-1,-4.9411768E-1,1.5E-1,3.8E1,9.1206E4,-0E0,4.434783E-1,-1.5E-1,-5.3333336E-1,1.20000005E-1,4.3610406E0,-6.666667E-2,3.3333337E-1,4.1052634E-1,-6.666667E-2,-3.3333337E-1,6.666667E-2,5E-1,-0E0,-0E0,-5E-1,3.75E-1,1.62E2,5.454546E-2,-5E-1,-4.1052634E-1,4.574E3,-3.818182E-1,3.3333337E-1,1.20000005E-1,-3E-1],"split_indices":[3,6,7,6,3,5,3,0,0,0,6,8,3,6,0,0,3,6,1,8,0,4,8,0,0,3,1,0,0,7,0,0,0,0,4,0,6,3,6,1,0,0,1,0,0,11,0,5,6,0,0,0,5,4,0,0,0,6,6,0,1,0,0,0,4,0,1,0,4,0,0,0,0,0,2,1,1,3,11,0,0,0,0,1,4,0,0,0,0,0,0,4,0,0,8,0,0,0,0,7,0,0,0,0,6,4,0,6,3,0,5,0,4,0,0,1,0,0,1,0,6,0,0,0,0,0,4,0,0,6,0,0,6,4,6,0,6,0,0,0,0,1,0,0,0,0,0,0,0,4,4,0,1,4,0,6,0,0,0,12,0,1,3,6,0,0,0,0,0,0,0,1,4,0,0,0,0,0,6,0,0,0,0,0,0,0,0,0,0,0,3,0,0,0,0,0,0,0,0],"split_type":[0,0,0,0,0,0,0,0,0,0,0,0,0,0,0,0,0,0,0,0,0,0,0,0,0,0,0,0,0,0,0,0,0,0,0,0,0,0,0,0,0,0,0,0,0,0,0,0,0,0,0,0,0,0,0,0,0,0,0,0,0,0,0,0,0,0,0,0,0,0,0,0,0,0,0,0,0,0,0,0,0,0,0,0,0,0,0,0,0,0,0,0,0,0,0,0,0,0,0,0,0,0,0,0,0,0,0,0,0,0,0,0,0,0,0,0,0,0,0,0,0,0,0,0,0,0,0,0,0,0,0,0,0,0,0,0,0,0,0,0,0,0,0,0,0,0,0,0,0,0,0,0,0,0,0,0,0,0,0,0,0,0,0,0,0,0,0,0,0,0,0,0,0,0,0,0,0,0,0,0,0,0,0,0,0,0,0,0,0,0,0,0,0,0,0,0,0,0,0],"sum_hessian":[1.5665E3,6.6925E2,8.9725E2,6.09E2,6.025E1,3.065E2,5.9075E2,6.03E2,6E0,2.475E1,3.55E1,1.805E2,1.26E2,9.45E1,4.9625E2,1.25E0,4.75E0,1.1E1,1.375E1,3.075E1,4.75E0,1.1275E2,6.775E1,1.925E1,1.0675E2,3.3E1,6.15E1,3.5E0,1.25E0,7E0,4E0,1.25E0,1.25E1,2.775E1,3E0,1.05E2,7.75E0,1.075E1,5.7E1,1.525E1,4E0,1.35E1,1.95E1,6.05E1,1E0,2.75E0,4.25E0,3E0,2.475E1,1E0,2E0,1.325E1,9.175E1,3.75E0,4E0,9.75E0,1E0,1.975E1,3.725E1,1E0,1.425E1,2.5E0,1.5E0,1.75E0,1.175E1,3.75E0,1.575E1,5.775E1,2.75E0,1.25E0,1.5E0,1.25E0,1.75E0,2.5E0,2.225E1,7.25E0,6E0,4.225E1,4.95E1,1.5E0,2.25E0,6E0,1.375E1,2.8E1,9.25E0,1.325E1,1E0,1.25E0,1.25E0,1E1,1.75E0,1.225E1,3.5E0,1E0,5.675E1,1.75E0,1E0,1.5E0,1E0,2.075E1,1.5E0,1.5E0,5.75E0,1E0,5E0,4E0,3.825E1,2.35E1,2.6E1,3.75E0,1E1,1.625E1,1.175E1,1.75E0,7.5E0,3.25E0,9E0,5.025E1,6.5E0,1.775E1,3E0,4.5E0,1.25E0,1E0,4E0,1.25E0,2.75E0,2.675E1,1.15E1,1.85E1,5E0,2.125E1,4.75E0,3.25E0,6.75E0,9E0,7.25E0,1E1,1.75E0,1.5E0,1.75E0,7.5E0,1.5E0,1.25E0,5.25E0,2E0,1E0,1.5E0,1.25E0,3E0,8.5E0,1.275E1,5.75E0,1.35E1,7.75E0,2.5E0,2.25E0,1E0,2.25E0,5E0,1.75E0,2.5E0,6.5E0,6E0,1.25E0,6.5E0,1E0,2E0,1E0,7.5E0,1E0,6E0,6.75E0,1E0,4.75E0,1E0,1.25E1,1.5E0,6.25E0,1.25E0,1.25E0,3.75E0,1.25E0,1.25E0,1.25E0,5E0,1.5E0,1E0,5E0,3E0,3E0,1.75E0,5E0,3.75E0,2.5E0,1.75E0,1.25E0,1.5E0,1E0],"tree_param":{"num_deleted":"0","num_feature":"13","num_nodes":"199","size_leaf_vector":"1"}},{"base_weights":[-2.8917184E-3,-1.3951755E0,1.0284276E0,-1.5370593E0,-7.851721E-3,3.3356822E-1,1.3951555E0,-4.6258545E-1,-9.142414E-1,-5.385125E-1,8.115494E-1,-4.1450283E-1,1.4331737E0,5.6996006E-1,1.5389384E0,-9.874792E-2,-3.3703253E-1,2.3385547E-2,-1.1027104E0,1.1384331E0,-2.990157E-1,-5.290114E-1,7.028176E-1,8.301267E-1,4.60853E-1,-6.6561645E-1,1.2569023E0,1.6434751E-1,4.626674E-1,6.717453E-1,-6.8011206E-1,-1.7586393E-2,-1.2699946E0,4.3960914E-1,1.8882917E-1,-1.0983355E0,-3.2760295E-1,1.1707221E0,1.3826849E-1,-4.6123404E-2,1.2048868E0,-1.325306E0,-1.6292208E-1,1.3104256E0,-2.9903352E-3,-3.782441E-1,3.7569258E-1,1.5886882E-1,-3.7493768E-1,1.9046833E-1,-1.970601E-1,-4.0266022E-1,-6.658378E-2,-7.3885244E-1,3.6052248E-1,-4.2275915E-1,-1.244244E0,-1.3101798E-2,-1.2079557E0,4.2476752E-1,5.435055E-1,-5.2102476E-1,3.5681272E-1,-5.669054E-1,2.9460704E-1,4.4609314E-1,-5.2407216E-2,-4.3153656E-1,-7.594087E-2,-3.9043707E-1,2.2712143E-1,8.1931967E-1,4.3420932E-1,-2.659666E-1,1.1288972E-1,7.650999E-1,-2.7008638E-1,-1.9060194E-2,-3.324515E-1,-9.780629E-1,3.469304E-1,-4.2802614E-1,-4.8826292E-1,-5.528777E-1,3.4666583E-1,-5.8418846E-1,-4.249657E-1,2.750508E-1,-6.244839E-2,1.7614616E-1,-9.189502E-1,-6.0509774E-3,-2.855699E-1,6.210555E-1,-3.6641136E-1,1.1030622E0,-2.7544004E-1,3.0397466E-1,4.1831084E-2,-3.784473E-1,6.24183E-2,-3.1033668E-1,4.2807865E-1,-1.3463084E-1,-1.0517476E0,-1.723383E-1,9.414686E-1,-1.126519E0,3.6903128E-1,-3.5613564E-1,-1.775932E-2,-2.8062156E-1,8.723593E-1,1.2657268E0,-5.5752743E-2,2.2716144E-1,-3.9722253E-2,-9.4783896E-1,4.868667E-1,5.5235762E-2,-3.4961265E-1,-8.39715E-1,8.526263E-1,2.9800412E-1,4.7420058E-1,-4.10612E-1,-1.8611686E-2,-2.8676188E-1,3.6757687E-1,-2.6153435E-3,-1.2769651E-1,1.0205499E0,3.649496E-2,4.228206E-1,5.967547E-2,-3.8341093E-1,1.3921136E-1,9.311182E-1,-3.3153677E-1,1.13759525E-1,-1.2300597E0,1.178302E0,-2.813881E-1,3.4777853E-1,-1.799394E-1,4.995276E-3,3.856388E-1,1.1648127E0,-5.0047938E-2,-5.81594E-1,2.66101E-1,-1.370455E0,2.7773075E-2,5.56798E-2,3.8458502E-1,-8.9917743E-1,4.9806648E-1,3.975077E-1,3.0750657E-2,-4.7036074E-2,-2.5375172E-1,-3.740434E-2,-4.494973E-1,-3.8113827E-1,5.207412E-2,3.3891255E-1,-2.9448602E-1],"categories":[],"categories_nodes":[],"categories_segments":[],"categories_sizes":[],"default_left":[0,0,0,0,0,0,0,0,0,0,0,0,0,0,0,0,0,0,0,0,0,0,0,0,0,0,0,0,0,0,0,0,0,0,0,0,0,0,0,0,0,0,0,0,0,0,0,0,0,0,0,0,0,0,0,0,0,0,0,0,0,0,0,0,0,0,0,0,0,0,0,0,0,0,0,0,0,0,0,0,0,0,0,0,0,0,0,0,0,0,0,0,0,0,0,0,0,0,0,0,0,0,0,0,0,0,0,0,0,0,0,0,0,0,0,0,0,0,0,0,0,0,0,0,0,0,0,0,0,0,0,0,0,0,0,0,0,0,0,0,0,0,0,0,0,0,0,0,0,0,0,0,0,0,0,0,0,0,0,0,0,0,0,0,0,0,0],"id":1,"left_children":[1,3,5,7,9,11,13,-1,15,17,19,21,23,25,27,-1,-1,29,31,33,-1,35,37,39,-1,41,43,-1,-1,45,47,49,51,-1,53,55,57,59,61,63,65,67,69,71,-1,73,-1,75,-1,-1,-1,-1,-1,77,-1,79,81,83,85,-1,87,89,-1,91,-1,-1,-1,-1,-1,-1,93,95,-1,-1,-1,97,-1,-1,-1,99,-1,-1,101,103,105,107,-1,-1,-1,-1,109,-1,-1,111,-1,113,-1,-1,-1,-1,-1,-1,115,117,119,121,123,125,127,-1,-1,129,131,133,-1,-1,-1,135,137,-1,-1,139,141,143,-1,-1,-1,-1,-1,-1,-1,145,-1,-1,-1,-1,-1,147,-1,149,151,153,-1,-1,155,-1,-1,157,-1,159,-1,161,-1,-1,-1,163,165,-1,-1,-1,-1,-1,-1,-1,-1,-1,-1],"loss_changes":[2.0793374E3,1.2128381E2,2.1152307E2,2.9345703E-1,2.5734886E1,2.3807065E2,6.369214E1,0E0,4.6416044E-1,1.1410788E1,1.4887757E1,2.245308E1,5.9990845E0,7.07247E1,6.627197E-1,0E0,0E0,9.110401E0,3.2342567E0,5.9857464E0,0E0,1.7655956E1,4.1895103E0,6.380356E0,0E0,9.757667E0,3.6248322E0,0E0,0E0,6.798761E0,4.784989E0,1.8395503E0,8.773403E-1,0E0,6.8210163E0,3.4791908E0,3.251167E1,5.9496784E-1,6.5789433E0,4.161768E0,5.524189E0,1.1967621E0,8.3817005E0,2.251625E0,0E0,2.0451498E0,0E0,3.7503006E0,0E0,0E0,0E0,0E0,0E0,9.0601826E-1,0E0,8.78803E0,3.842804E0,1.7197268E1,3.194584E0,0E0,1.3460934E0,3.1765873E0,0E0,1.0549614E0,0E0,0E0,0E0,0E0,0E0,0E0,8.98326E0,7.643158E0,0E0,0E0,0E0,4.1344118E-1,0E0,0E0,0E0,2.6163206E0,0E0,0E0,4.406032E0,7.24644E0,1.6573507E1,5.300262E0,0E0,0E0,0E0,0E0,1.0340762E0,0E0,0E0,2.9627929E0,0E0,2.7544022E0,0E0,0E0,0E0,0E0,0E0,0E0,7.7625585E-1,1.0775553E1,2.461588E0,2.0713795E1,9.781332E0,1.53126E0,5.9125733E0,0E0,0E0,1.2922621E-1,9.4649124E-1,1.3745575E0,0E0,0E0,0E0,4.8725824E0,9.67707E0,0E0,0E0,6.9173813E0,8.117609E0,5.82911E0,0E0,0E0,0E0,0E0,0E0,0E0,0E0,2.0800982E0,0E0,0E0,0E0,0E0,0E0,2.7865362E0,0E0,3.852095E0,2.541813E0,8.545418E-1,0E0,0E0,5.152104E0,0E0,0E0,1.3032026E0,0E0,3.0191076E-1,0E0,1.6961288E0,0E0,0E0,0E0,2.226966E0,6.3515644E0,0E0,0E0,0E0,0E0,0E0,0E0,0E0,0E0,0E0,0E0],"parents":[2147483647,0,0,1,1,2,2,3,3,4,4,5,5,6,6,8,8,9,9,10,10,11,11,12,12,13,13,14,14,17,17,18,18,19,19,21,21,22,22,23,23,25,25,26,26,29,29,30,30,31,31,32,32,34,34,35,35,36,36,37,37,38,38,39,39,40,40,41,41,42,42,43,43,45,45,47,47,53,53,55,55,56,56,57,57,58,58,60,60,61,61,63,63,70,70,71,71,75,75,79,79,82,82,83,83,84,84,85,85,90,90,93,93,95,95,102,102,103,103,104,104,105,105,106,106,107,107,108,108,111,111,112,112,113,113,117,117,118,118,121,121,122,122,123,123,131,131,137,137,139,139,140,140,141,141,144,144,147,147,149,149,151,151,155,155,156,156],"right_children":[2,4,6,8,10,12,14,-1,16,18,20,22,24,26,28,-1,-1,30,32,34,-1,36,38,40,-1,42,44,-1,-1,46,48,50,52,-1,54,56,58,60,62,64,66,68,70,72,-1,74,-1,76,-1,-1,-1,-1,-1,78,-1,80,82,84,86,-1,88,90,-1,92,-1,-1,-1,-1,-1,-1,94,96,-1,-1,-1,98,-1,-1,-1,100,-1,-1,102,104,106,108,-1,-1,-1,-1,110,-1,-1,112,-1,114,-1,-1,-1,-1,-1,-1,116,118,120,122,124,126,128,-1,-1,130,132,134,-1,-1,-1,136,138,-1,-1,140,142,144,-1,-1,-1,-1,-1,-1,-1,146,-1,-1,-1,-1,-1,148,-1,150,152,154,-1,-1,156,-1,-1,158,-1,160,-1,162,-1,-1,-1,164,166,-1,-1,-1,-1,-1,-1,-1,-1,-1,-1],"split_conditions":[9.6E1,2.9282477E0,2E0,2.840451E0,8.6E1,3E0,1.15E2,-4.6258545E-1,2.169E3,1.633E3,4.125263E0,1E0,1.14E2,2.410253E0,9.0026E4,-9.874792E-2,-3.3703253E-1,3.5733228E0,8E0,5.4E1,-2.990157E-1,2.0832245E0,9.2173E4,2.5467162E0,4.60853E-1,9.2811E4,3.6E1,1.6434751E-1,4.626674E-1,2E0,2E0,9.136E4,8.5E1,4.3960914E-1,2E0,9.1107E4,5.7886024E0,1.37E2,9.5821E4,4E0,4.24955E0,4.334E3,3.5E1,1E1,-2.9903352E-3,3.2274976E0,3.7569258E-1,2E0,-3.7493768E-1,1.9046833E-1,-1.970601E-1,-4.0266022E-1,-6.658378E-2,9.1E1,3.6052248E-1,9.0747E4,1.56E2,3.5101235E0,9.1709E4,4.2476752E-1,3.2904832E0,1E0,3.5681272E-1,2.033E3,2.9460704E-1,4.4609314E-1,-5.2407216E-2,-4.3153656E-1,-7.594087E-2,-3.9043707E-1,5.9E1,1E0,4.3420932E-1,-2.659666E-1,1.1288972E-1,9.221E4,-2.7008638E-1,-1.9060194E-2,-3.324515E-1,1.4356142E0,3.469304E-1,-4.2802614E-1,9.5039E4,2.57E3,2E0,5.3E1,-4.249657E-1,2.750508E-1,-6.244839E-2,1.7614616E-1,4.148E3,-6.0509774E-3,-2.855699E-1,1.05E2,-3.6641136E-1,1.61E2,-2.7544004E-1,3.0397466E-1,4.1831084E-2,-3.784473E-1,6.24183E-2,-3.1033668E-1,1.73E2,1.169E3,2.3E0,2.5E1,4.505674E0,4.271E3,1.56E2,-3.5613564E-1,-1.775932E-2,1.9E3,2.416E3,3.5E1,-5.5752743E-2,2.2716144E-1,-3.9722253E-2,9.4792E4,5.3E1,5.5235762E-2,-3.4961265E-1,1.12E2,1.39E2,1.18E2,4.7420058E-1,-4.10612E-1,-1.8611686E-2,-2.8676188E-1,3.6757687E-1,-2.6153435E-3,-1.2769651E-1,2E0,3.649496E-2,4.228206E-1,5.967547E-2,-3.8341093E-1,1.3921136E-1,3.3E0,-3.3153677E-1,2E0,9.5665E4,3.8012545E0,-2.813881E-1,3.4777853E-1,1.42E2,4.995276E-3,3.856388E-1,9.5819E4,-5.0047938E-2,1.07E2,2.66101E-1,4E0,2.7773075E-2,5.56798E-2,3.8458502E-1,2E0,4.4E1,3.975077E-1,3.0750657E-2,-4.7036074E-2,-2.5375172E-1,-3.740434E-2,-4.494973E-1,-3.8113827E-1,5.207412E-2,3.3891255E-1,-2.9448602E-1],"split_indices":[3,6,7,6,3,5,3,0,0,0,6,10,3,6,4,0,0,6,2,1,0,6,4,6,0,4,2,0,0,7,7,4,3,0,5,4,6,3,4,5,6,0,1,2,0,6,0,5,0,0,0,0,0,3,0,4,3,6,4,0,6,12,0,0,0,0,0,0,0,0,1,11,0,0,0,4,0,0,0,6,0,0,4,0,5,1,0,0,0,0,0,0,0,3,0,8,0,0,0,0,0,0,3,0,6,2,6,0,3,0,0,0,0,1,0,0,0,4,1,0,0,3,3,3,0,0,0,0,0,0,0,5,0,0,0,0,0,6,0,8,4,6,0,0,3,0,0,4,0,3,0,6,0,0,0,8,8,0,0,0,0,0,0,0,0,0,0],"split_type":[0,0,0,0,0,0,0,0,0,0,0,0,0,0,0,0,0,0,0,0,0,0,0,0,0,0,0,0,0,0,0,0,0,0,0,0,0,0,0,0,0,0,0,0,0,0,0,0,0,0,0,0,0,0,0,0,0,0,0,0,0,0,0,0,0,0,0,0,0,0,0,0,0,0,0,0,0,0,0,0,0,0,0,0,0,0,0,0,0,0,0,0,0,0,0,0,0,0,0,0,0,0,0,0,0,0,0,0,0,0,0,0,0,0,0,0,0,0,0,0,0,0,0,0,0,0,0,0,0,0,0,0,0,0,0,0,0,0,0,0,0,0,0,0,0,0,0,0,0,0,0,0,0,0,0,0,0,0,0,0,0,0,0,0,0,0,0],"sum_hessian":[1.4461194E3,6.152191E2,8.3090027E2,5.5803955E2,5.7179523E1,2.8769623E2,5.4320404E2,5.522262E2,5.8133774E0,3.4912365E1,2.2267159E1,1.715871E2,1.1610913E2,8.134046E1,4.6186356E2,2.2089388E0,3.6044388E0,1.7972088E1,1.6940277E1,1.917186E1,3.095299E0,1.5611426E2,1.5472836E1,1.8260351E1,9.784878E1,2.9075151E1,5.2265312E1,2.0806086E0,4.5978296E2,9.376043E0,8.596045E0,2.4103255E0,1.4529952E1,1.3857762E1,5.314097E0,3.9632175E1,1.1648208E2,7.87348E0,7.5993557E0,5.7328763E0,1.2527475E1,1.1866391E1,1.7208761E1,5.0113705E1,2.1516073E0,3.462449E0,5.9135942E0,3.7679806E0,4.828064E0,1.196243E0,1.2140825E0,1.3330849E1,1.1991034E0,2.9149709E0,2.3991263E0,7.7315335E0,3.1900642E1,8.657023E1,2.9911852E1,4.7567267E0,3.116753E0,4.980015E0,2.619341E0,4.1031456E0,1.6297307E0,1.0336135E1,2.1913404E0,1.0424623E1,1.4417685E0,3.794868E0,1.3413893E1,1.244938E1,3.766432E1,1.9642446E0,1.4982044E0,2.5729375E0,1.1950431E0,1.44491E0,1.4700607E0,6.00175E0,1.7297835E0,2.4982136E1,6.9185057E0,3.4408623E1,5.2161602E1,8.448583E0,2.146327E1,1.935641E0,1.181112E0,1.1901209E0,3.7898939E0,2.130287E0,1.9728584E0,1.0994935E1,2.4189577E0,1.1015562E1,1.4338183E0,1.3987062E0,1.1742314E0,4.792925E0,1.2088249E0,4.2539864E0,2.6645193E0,1.9407482E1,1.5001142E1,2.8234993E1,2.392661E1,5.269001E0,3.1795812E0,2.5985901E0,1.1913038E0,2.371029E0,8.623906E0,9.7971115E0,1.2184503E0,1.4576097E0,1.2069097E0,8.17963E0,1.1227852E1,1.2108651E0,1.3790277E1,1.7209955E1,1.1025038E1,1.2654201E1,1.1272409E1,4.0595784E0,1.2094226E0,1.2024913E0,1.9770899E0,1.1935366E0,1.1774924E0,6.9019995E0,1.721907E0,8.351248E0,1.4458635E0,6.7060695E0,1.4735608E0,9.102799E0,2.1250525E0,5.204867E0,1.2005089E1,9.617697E0,1.4073411E0,4.0073705E0,8.64683E0,1.6629668E0,5.2390327E0,7.4550996E0,1.6477003E0,2.8709576E0,2.3339093E0,1.0820374E1,1.184715E0,1.1730742E0,8.444622E0,4.0375414E0,4.6092887E0,6.2632055E0,1.191894E0,1.712016E0,1.1589417E0,1.1910982E0,9.629275E0,2.8625228E0,1.1750185E0,3.396099E0,1.2131896E0],"tree_param":{"num_deleted":"0","num_feature":"13","num_nodes":"167","size_leaf_vector":"1"}},{"base_weights":[-2.8713574E-3,-1.1999254E0,8.681255E-1,-1.3316591E0,-1.164554E-2,2.746039E-1,1.1962959E0,-4.0110332E-1,-7.458275E-1,-6.646021E-1,4.4447193E-1,-3.3143854E-1,1.2287005E0,4.8440382E-1,4.0286717E-1,-3.2087904E-1,-2.9098862E-1,-1.5316308E-1,-3.4620628E-1,6.973709E-1,-9.9595237E-1,-4.2786664E-1,5.8863413E-1,6.7480624E-1,3.995428E-1,-5.0728124E-1,1.0556662E0,1.4103071E-1,-2.9969507E-1,6.9201475E-1,-7.441706E-1,8.631775E-1,-5.765353E-1,-8.207582E-2,-3.3588606E-1,-2.7225348E-1,-1.0209705E0,7.704249E-1,-1.1957758E-1,-3.0711373E-2,9.9919E-1,-8.2252276E-1,2.6052508E-1,1.1026222E0,-2.3772297E-3,-9.027573E-2,3.3738357E-1,-3.2758674E-1,8.190642E-2,-2.293851E-1,1.0115149E0,-3.087891E-1,7.359522E-2,-1.2066483E0,-1.3756597E-1,-1.2093728E0,3.0822376E-2,1.2703569E-1,4.0252972E-1,-4.6072787E-1,2.5693503E-1,3.8352597E-1,-9.789503E-2,-9.815959E-1,7.00591E-2,7.455012E-1,-2.6343787E-1,1.1861335E0,4.356951E-1,1.4137916E-1,-2.940065E-1,-3.0041229E-2,1.132948E0,-9.956356E-2,-3.792093E-1,6.521919E-2,-8.7653595E-1,-2.0910223E-1,-4.1976503E-1,-5.8591366E-1,2.6649517E-1,-4.156598E-1,2.64688E-1,-2.568105E-1,-1.4762887E-2,2.5755492E-1,-2.9535598E-1,-4.0828088E-1,-5.132755E-1,-2.4494499E-1,2.2231218E-1,-4.63581E-2,3.4340462E-1,5.5757217E-2,1.2193167E0,-2.2527876E-1,9.5597917E-1,1.2630844E-1,-1.4148183E-1,1.1866095E0,8.237456E-2,-3.3340967E-1,4.198317E-1,-2.9842225E-1,-1.1008587E0,4.6650907E-1,-2.893822E-1,4.7366597E-2,-2.7932864E-1,-2.3409413E-1,2.5216624E-2,-2.7794147E-1,2.7389893E-1,7.9301335E-3,-3.4545666E-1,1.5288708E-1,-1.8495323E-1,9.5061876E-2,1.2387155E0,6.723319E-2,3.2391113E-1,3.8248298E-1,4.9418125E-1,-6.983396E-1,2.1464673E-1,1.8275585E-2,1.1190827E0,-7.889459E-1,3.94274E-1,-1.0321651E-1,-3.406611E-1,2.4279048E-1,-1.5680786E-2,-4.224174E-1,2.0359723E-1,3.7928236E-1,1.5547566E-1,2.7129242E-1,-6.356966E-2,3.3693153E-1,-9.551274E-1,9.19357E-1,-4.8561284E-1,-3.562408E-1,1.9306841E-1,5.1911014E-1,3.9830664E-1,-3.1932575E-1,1.0912703E-2,-1.5668991E-1,2.9682046E-1,-2.521279E-1,1.1906984E-1,-1.20762765E-1,2.7333656E-1,2.1292593E-2,-1.1028911E0,3.6013746E-1,-6.5461405E-2,4.7165826E-1,-3.403731E-1,4.270017E-1,-6.797964E-1,3.06211E-1,5.787634E-2,1.994373E-1,-1.7756736E-1,-2.8155482E-1,-3.7107933E-1,-6.355006E-2,2.3060958E-1,9.634969E-1,-8.8340096E-2,-2.9816616E-1,2.7101751E-2,-2.0333464E-1,2.4707823E-1,1.6027164E-1,-2.6109055E-1,-3.8403978E-3,3.5495242E-1,1.8485235E-1,-3.1753778E-1],"categories":[],"categories_nodes":[],"categories_segments":[],"categories_sizes":[],"default_left":[0,0,0,0,0,0,0,0,0,0,0,0,0,0,0,0,0,0,0,0,0,0,0,0,0,0,0,0,0,0,0,0,0,0,0,0,0,0,0,0,0,0,0,0,0,0,0,0,0,0,0,0,0,0,0,0,0,0,0,0,0,0,0,0,0,0,0,0,0,0,0,0,0,0,0,0,0,0,0,0,0,0,0,0,0,0,0,0,0,0,0,0,0,0,0,0,0,0,0,0,0,0,0,0,0,0,0,0,0,0,0,0,0,0,0,0,0,0,0,0,0,0,0,0,0,0,0,0,0,0,0,0,0,0,0,0,0,0,0,0,0,0,0,0,0,0,0,0,0,0,0,0,0,0,0,0,0,0,0,0,0,0,0,0,0,0,0,0,0,0,0,0,0,0,0,0,0,0,0,0,0,0,0],"id":2,"left_children":[1,3,5,7,9,11,13,-1,15,17,19,21,23,25,-1,-1,27,29,-1,31,33,35,37,39,-1,41,43,-1,-1,45,47,49,51,-1,-1,53,55,57,-1,59,61,63,65,67,-1,-1,-1,-1,-1,69,71,-1,-1,73,75,77,79,81,-1,83,-1,-1,85,87,89,91,-1,93,95,-1,-1,97,99,-1,-1,101,103,105,-1,107,-1,109,-1,-1,111,-1,-1,-1,113,-1,-1,115,-1,-1,117,-1,119,-1,-1,121,-1,123,125,127,129,131,-1,-1,-1,-1,-1,-1,-1,133,-1,-1,-1,-1,135,-1,-1,-1,137,139,141,143,145,147,149,-1,-1,-1,-1,151,-1,-1,-1,-1,-1,153,155,157,159,-1,161,163,-1,-1,-1,-1,-1,-1,-1,-1,-1,165,167,-1,-1,169,-1,171,173,-1,175,-1,-1,177,-1,-1,-1,179,181,-1,-1,-1,-1,-1,-1,-1,-1,-1,-1],"loss_changes":[1.2854003E3,8.126337E1,1.3866608E2,4.6826172E-1,1.6028542E1,1.4807428E2,4.7274536E1,0E0,6.44927E-1,5.361635E0,1.2242474E1,1.4177895E1,4.7790833E0,4.5846405E1,0E0,0E0,2.6647263E0,6.4954586E0,0E0,6.317704E0,1.5342712E-1,1.2888216E1,3.054933E0,4.065296E0,0E0,7.4536376E0,2.559414E0,0E0,0E0,2.677307E0,2.961152E0,4.2482834E0,1.6564009E0,0E0,0E0,1.422739E1,5.8404865E0,4.707898E0,0E0,2.8830009E0,3.8338375E0,3.1135273E0,5.881439E0,2.2078896E0,0E0,0E0,0E0,0E0,0E0,2.448565E0,2.8170662E0,0E0,0E0,2.9729652E-1,1.5205455E1,4.4284935E0,3.3889487E0,3.3778865E0,0E0,8.765023E-1,0E0,0E0,3.7156851E0,2.5466614E0,3.0897567E0,2.3222206E0,0E0,1.1972046E0,5.0547585E0,0E0,0E0,8.502027E-1,5.830631E-1,0E0,0E0,1.1484296E1,2.503292E0,3.0743792E0,0E0,1.1117272E0,0E0,9.6842754E-1,0E0,0E0,3.711138E0,0E0,0E0,0E0,3.2626247E0,0E0,0E0,1.381523E0,0E0,0E0,3.3117676E-1,0E0,2.4006033E-1,0E0,0E0,4.8743057E-1,0E0,7.81769E0,1.2029141E1,2.8513753E0,1.2432098E-2,6.448556E-1,0E0,0E0,0E0,0E0,0E0,0E0,0E0,2.1273558E0,0E0,0E0,0E0,0E0,8.366394E-2,0E0,0E0,0E0,1.263072E0,6.502536E0,8.386153E0,6.1885695E0,1.2679405E0,1.1095734E0,2.5711389E0,0E0,0E0,0E0,0E0,1.8750472E0,0E0,0E0,0E0,0E0,0E0,2.6425629E0,2.7488441E0,2.9367433E0,5.9550614E0,0E0,5.508608E0,1.2541556E0,0E0,0E0,0E0,0E0,0E0,0E0,0E0,0E0,0E0,1.7602824E0,1.4600582E0,0E0,0E0,1.02189E0,0E0,5.8272038E0,1.4896965E0,0E0,2.8211603E0,0E0,0E0,2.1936417E0,0E0,0E0,0E0,2.2155085E0,8.5183E0,0E0,0E0,0E0,0E0,0E0,0E0,0E0,0E0,0E0,0E0],"parents":[2147483647,0,0,1,1,2,2,3,3,4,4,5,5,6,6,8,8,9,9,10,10,11,11,12,12,13,13,16,16,17,17,19,19,20,20,21,21,22,22,23,23,25,25,26,26,29,29,30,30,31,31,32,32,35,35,36,36,37,37,39,39,40,40,41,41,42,42,43,43,49,49,50,50,53,53,54,54,55,55,56,56,57,57,59,59,62,62,63,63,64,64,65,65,67,67,68,68,71,71,72,72,75,75,76,76,77,77,79,79,81,81,84,84,88,88,91,91,94,94,96,96,99,99,101,101,102,102,103,103,104,104,105,105,113,113,118,118,122,122,123,123,124,124,125,125,126,126,127,127,128,128,133,133,139,139,140,140,141,141,142,142,144,144,145,145,155,155,156,156,159,159,161,161,162,162,164,164,167,167,171,171,172,172],"right_children":[2,4,6,8,10,12,14,-1,16,18,20,22,24,26,-1,-1,28,30,-1,32,34,36,38,40,-1,42,44,-1,-1,46,48,50,52,-1,-1,54,56,58,-1,60,62,64,66,68,-1,-1,-1,-1,-1,70,72,-1,-1,74,76,78,80,82,-1,84,-1,-1,86,88,90,92,-1,94,96,-1,-1,98,100,-1,-1,102,104,106,-1,108,-1,110,-1,-1,112,-1,-1,-1,114,-1,-1,116,-1,-1,118,-1,120,-1,-1,122,-1,124,126,128,130,132,-1,-1,-1,-1,-1,-1,-1,134,-1,-1,-1,-1,136,-1,-1,-1,138,140,142,144,146,148,150,-1,-1,-1,-1,152,-1,-1,-1,-1,-1,154,156,158,160,-1,162,164,-1,-1,-1,-1,-1,-1,-1,-1,-1,166,168,-1,-1,170,-1,172,174,-1,176,-1,-1,178,-1,-1,-1,180,182,-1,-1,-1,-1,-1,-1,-1,-1,-1,-1],"split_conditions":[9.6E1,2.9282477E0,2E0,2.840451E0,8.3E1,3E0,1.16E2,-4.0110332E-1,7.3E1,3.5733228E0,4.125263E0,1E0,1.14E2,2.410253E0,4.0286717E-1,-3.2087904E-1,3E0,3.9E1,-3.4620628E-1,1.47E2,4.4186554E0,1E0,5.9E1,2.5467162E0,3.995428E-1,9.4545E4,3.6E1,1.4103071E-1,-2.9969507E-1,2E0,2E0,9.22E2,2.91E2,-8.207582E-2,-3.3588606E-1,9.373267E-1,9.5134E4,4.9E1,-1.1957758E-1,4E0,5.8E1,1.9E2,9.504E4,1.69E2,-2.3772297E-3,-9.027573E-2,3.3738357E-1,-3.2758674E-1,8.190642E-2,1E0,3.0315034E0,-3.087891E-1,7.359522E-2,9.0258E4,5.7886024E0,9.0401E4,3.901E3,2E0,4.0252972E-1,1.1421368E0,2.5693503E-1,3.8352597E-1,3.9892633E0,4.4E1,9.2811E4,9.4792E4,-2.6343787E-1,3.15E2,3.4E1,1.4137916E-1,-2.940065E-1,2.515E3,3.5E1,-9.956356E-2,-3.792093E-1,2E0,9.1709E4,1E0,-4.1976503E-1,1.12E2,2.6649517E-1,9.4598E4,2.64688E-1,-2.568105E-1,3.1E1,2.5755492E-1,-2.9535598E-1,-4.0828088E-1,5.9E1,-2.4494499E-1,2.2231218E-1,9.4701E4,3.4340462E-1,5.5757217E-2,9.0358E4,-2.2527876E-1,1.01E2,1.2630844E-1,-1.4148183E-1,3E0,8.237456E-2,2E0,3.924448E0,5.3E1,2.9E1,1.19E2,-2.893822E-1,4.7366597E-2,-2.7932864E-1,-2.3409413E-1,2.5216624E-2,-2.7794147E-1,2.7389893E-1,3.67E3,-3.4545666E-1,1.5288708E-1,-1.8495323E-1,9.5061876E-2,4.628E3,6.723319E-2,3.2391113E-1,3.8248298E-1,3.455526E0,1.08E2,1.98E2,6E0,3.3E1,9.1107E4,1.62E2,-1.0321651E-1,-3.406611E-1,2.4279048E-1,-1.5680786E-2,5.7E1,2.0359723E-1,3.7928236E-1,1.5547566E-1,2.7129242E-1,-6.356966E-2,1.04E2,3.55E2,1E0,9.0358E4,-3.562408E-1,5.5E1,4.3333335E0,3.9830664E-1,-3.1932575E-1,1.0912703E-2,-1.5668991E-1,2.9682046E-1,-2.521279E-1,1.1906984E-1,-1.20762765E-1,2.7333656E-1,6.1E1,1.4E0,3.6013746E-1,-6.5461405E-2,2.383E3,-3.403731E-1,2.7906418E0,1.31E2,3.06211E-1,9.5665E4,1.994373E-1,-1.7756736E-1,5.1E1,-3.7107933E-1,-6.355006E-2,2.3060958E-1,9.028E4,2.284E3,-2.9816616E-1,2.7101751E-2,-2.0333464E-1,2.4707823E-1,1.6027164E-1,-2.6109055E-1,-3.8403978E-3,3.5495242E-1,1.8485235E-1,-3.1753778E-1],"split_indices":[3,6,7,6,3,5,3,0,3,6,6,10,3,6,0,0,7,1,0,8,6,12,1,6,0,4,2,0,0,7,8,0,8,0,0,6,4,1,0,5,1,8,4,8,0,0,0,0,0,11,6,0,0,4,6,4,0,8,0,6,0,0,6,1,4,4,0,0,1,0,0,0,2,0,0,5,4,11,0,3,0,4,0,0,1,0,0,0,1,0,0,4,0,0,4,0,3,0,0,7,0,8,6,1,1,3,0,0,0,0,0,0,0,0,0,0,0,0,0,0,0,0,6,3,8,2,1,4,3,0,0,0,0,1,0,0,0,0,0,3,0,11,4,0,1,6,0,0,0,0,0,0,0,0,0,1,6,0,0,0,0,6,3,0,4,0,0,1,0,0,0,4,0,0,0,0,0,0,0,0,0,0,0],"split_type":[0,0,0,0,0,0,0,0,0,0,0,0,0,0,0,0,0,0,0,0,0,0,0,0,0,0,0,0,0,0,0,0,0,0,0,0,0,0,0,0,0,0,0,0,0,0,0,0,0,0,0,0,0,0,0,0,0,0,0,0,0,0,0,0,0,0,0,0,0,0,0,0,0,0,0,0,0,0,0,0,0,0,0,0,0,0,0,0,0,0,0,0,0,0,0,0,0,0,0,0,0,0,0,0,0,0,0,0,0,0,0,0,0,0,0,0,0,0,0,0,0,0,0,0,0,0,0,0,0,0,0,0,0,0,0,0,0,0,0,0,0,0,0,0,0,0,0,0,0,0,0,0,0,0,0,0,0,0,0,0,0,0,0,0,0,0,0,0,0,0,0,0,0,0,0,0,0,0,0,0,0,0,0],"sum_hessian":[1.2308446E3,5.182333E2,7.126113E2,4.6640643E2,5.182683E1,2.5438078E2,4.5823053E2,4.609135E2,5.492932E0,2.1126307E1,3.0700523E1,1.5596461E2,9.841616E1,7.8982155E1,3.7924838E2,2.4192417E0,3.07369E0,1.0972781E1,1.0153525E1,2.6554193E1,4.1463304E0,1.416536E2,1.4311026E1,1.6629284E1,8.178687E1,2.8909174E1,5.0072983E1,1.6432323E0,1.4304577E0,4.4451013E0,6.52768E0,2.3781326E1,2.772866E0,1.0756323E0,3.0706983E0,1.1336813E2,2.8285461E1,1.227101E1,2.0400143E0,5.522802E0,1.1106482E1,2.0444092E1,8.465081E0,4.7920662E1,2.1523235E0,1.4412986E0,3.0038025E0,4.8097067E0,1.7179731E0,2.7775106E0,2.1003817E1,1.6251526E0,1.1477135E0,1.3279904E1,1.0008823E2,2.3861462E1,4.4240007E0,6.3465176E0,5.9244933E0,4.0435314E0,1.4792706E0,8.721419E0,2.3850622E0,1.726708E1,3.1770108E0,6.1787114E0,2.2863698E0,4.189602E1,6.0246425E0,1.6290892E0,1.1484213E0,2.27169E0,1.8732126E1,1.2350945E0,1.204481E1,7.925197E1,2.0836262E1,4.141534E0,1.9719927E1,2.7574644E0,1.6665366E0,3.954575E0,2.3919423E0,1.6560678E0,2.3874638E0,1.162627E0,1.2224352E0,8.48678E0,8.780301E0,1.275238E0,1.9017727E0,2.367045E0,3.8116667E0,1.5571862E0,4.0338833E1,1.7012515E0,4.323391E0,1.1467576E0,1.1249323E0,1.727007E1,1.4620582E0,3.733855E1,4.1913414E1,6.4762664E0,1.4359996E1,2.3883073E0,1.7532266E0,1.0460387E0,1.7114255E0,1.9616189E0,1.9929562E0,1.2048482E0,1.1826155E0,5.376947E0,3.4033537E0,1.252165E0,1.11488E0,1.2136526E0,3.912518E1,1.0317342E0,3.2916567E0,1.4570085E1,2.6999836E0,2.2249348E1,1.5089204E1,2.7275917E1,1.4637497E1,3.7100759E0,2.7661903E0,1.107687E0,1.3252309E1,1.1008716E0,1.2874357E0,3.5009203E0,1.8760269E0,3.7055794E1,2.069384E0,1.5303407E0,1.1696429E0,4.359877E0,1.788947E1,7.3647575E0,7.724447E0,2.7199242E0,2.4555994E1,4.6763363E0,9.961161E0,2.5644271E0,1.1456486E0,1.1371715E0,1.6290188E0,2.301135E0,1.1997851E0,2.0363245E0,2.3235526E0,2.4639082E0,1.5425562E1,5.861131E0,1.5036261E0,3.2312794E0,4.4931674E0,1.976867E1,4.7873244E0,1.6590879E0,3.0172482E0,1.1611698E0,1.3027384E0,2.5992239E0,1.2826338E1,1.0657755E0,2.165504E0,9.259482E0,1.0509186E1,3.1941092E0,1.5932151E0,1.5973984E0,1.4198498E0,1.1283357E0,1.4708881E0,1.8737661E0,7.385717E0,6.299352E0,4.2098336E0],"tree_param":{"num_deleted":"0","num_feature":"13","num_nodes":"183","size_leaf_vector":"1"}},{"base_weights":[-3.326099E-3,-1.0834615E0,7.649756E-1,-1.2142643E0,-1.7384348E-2,2.3228572E-1,1.0770692E0,-3.6615226E-1,-6.4051485E-1,-3.9089885E-1,5.828046E-1,-2.7720106E-1,1.1065813E0,4.0599042E-1,3.682555E-1,-4.2626236E-2,-2.5780743E-1,2.6670324E-2,-8.248459E-1,8.030405E-1,-2.6311666E-1,-6.3809234E-1,-8.8243656E-2,5.742604E-1,3.6446938E-1,-4.285204E-1,9.1369826E-1,-3.17103E-1,3.040704E-1,-3.4820658E-1,-3.765122E-1,1.168384E0,-1.6339434E-2,-1.0899472E0,-4.5796135E-1,1.9295008E-1,-7.941369E-1,-3.4616292E-1,7.4873793E-1,-9.3740433E-1,-6.841591E-2,9.935867E-1,2.6308602E-1,7.1233875E-1,-4.1798928E-1,-2.9442865E-1,2.5486112E-1,3.6931634E-1,8.433651E-2,-7.124584E-1,2.8415105E-1,-3.5681298E-1,-3.1192852E-2,-2.2902134E-1,-1.1463902E0,-8.332325E-2,7.052723E-1,-8.869436E-1,2.1089357E-1,-2.7743134E-1,1.3282728E-1,9.2269945E-1,-4.4231E-2,-5.6070585E-2,-1.0390496E0,-2.989919E-1,1.8474802E-1,5.0310415E-1,1.0981688E0,2.5842735E-1,-5.2432E-1,8.83376E-1,-5.6413505E-2,2.1187074E-1,-2.8602475E-1,2.0081083E-1,-1.1301656E-1,-3.771169E-2,-2.8819898E-1,3.1835508E-2,-9.2701256E-1,-1.0010123E-1,-3.651843E-1,2.8435194E-1,-5.9415156E-1,-3.9152128E-1,8.765119E-1,-4.244602E-1,-1.0443517E0,-9.077792E-2,3.5493967E-1,-3.457454E-1,-8.2094185E-2,5.336126E-1,-2.605032E-1,3.0183998E-1,-5.1617026E-1,1.1446623E0,8.5871086E-2,-9.068361E-3,-2.3217082E-1,2.948564E-1,3.8359083E-2,2.5902864E-1,-1.61847E-1,-2.9885235E-1,2.3457019E-1,-3.4044957E-1,4.934342E-2,4.855223E-1,-5.6049913E-1,-9.406707E-1,2.5946313E-1,3.221514E-2,-2.3384999E-1,9.5602804E-1,-7.790033E-2,-8.1116146E-1,2.3328695E-1,-5.333117E-1,-3.3650124E-1,-2.425711E-1,2.0001708E-1,-1.030909E-1,7.891982E-1,-2.433429E-1,-1.40560875E-2,9.4483696E-2,1.1658711E0,-6.836266E-1,4.3084982E-1,-2.2856629E-1,6.2687486E-1,-2.9154772E-1,3.5259947E-2,1.4810892E-2,-1.116984E0,-6.1237806E-1,2.9642203E-1,1.0956297E0,2.6327753E-2,-3.1741488E-1,1.7080687E-2,-2.3400502E-1,2.7773413E-1,8.387868E-2,-2.6696932E-1,1.7802712E-1,-2.3949003E-1,9.852688E-2,3.1169325E-1,1.312776E-1,3.5837778E-1,-2.6683098E-1,-2.9557802E-2,5.8767754E-1,-1.9368747E-1,1.8933642E-1,8.273917E-1,-1.1668487E-1,1.2870666E-1,-2.1687548E-1,2.1567725E-1,-3.5937324E-1,-5.526143E-2,-2.5875875E-1,-1.0914156E-2,3.4387323E-1,7.6541066E-2,2.4793811E-1,-2.5049147E-1,-1.361955E-1,1.8114133E-1,-1.7489944E-1,9.823499E-1,-3.6568567E-1,2.9973862E-1,2.2622025E-1,3.1339562E-1,2.6747787E-1,-1.8912084E-1,2.2600017E-1,3.6573243E-1,2.3125727E-1,-2.6061845E-1,2.5215802E-1,-1.3210191E-1,-5.4328986E-2,1.6594486E-1,1.792464E-1,-8.720292E-2],"categories":[],"categories_nodes":[],"categories_segments":[],"categories_sizes":[],"default_left":[0,0,0,0,0,0,0,0,0,0,0,0,0,0,0,0,0,0,0,0,0,0,0,0,0,0,0,0,0,0,0,0,0,0,0,0,0,0,0,0,0,0,0,0,0,0,0,0,0,0,0,0,0,0,0,0,0,0,0,0,0,0,0,0,0,0,0,0,0,0,0,0,0,0,0,0,0,0,0,0,0,0,0,0,0,0,0,0,0,0,0,0,0,0,0,0,0,0,0,0,0,0,0,0,0,0,0,0,0,0,0,0,0,0,0,0,0,0,0,0,0,0,0,0,0,0,0,0,0,0,0,0,0,0,0,0,0,0,0,0,0,0,0,0,0,0,0,0,0,0,0,0,0,0,0,0,0,0,0,0,0,0,0,0,0,0,0,0,0,0,0,0,0,0,0,0,0,0,0,0,0,0,0,0,0,0,0,0,0,0,0],"id":3,"left_children":[1,3,5,7,9,11,13,-1,15,17,19,21,23,25,-1,-1,-1,27,29,31,-1,33,35,37,-1,39,41,-1,43,-1,45,47,49,51,53,55,57,59,61,63,65,67,69,71,73,-1,75,-1,-1,77,-1,-1,-1,79,81,83,85,87,-1,-1,-1,89,-1,-1,91,-1,93,95,97,-1,99,101,-1,103,-1,-1,-1,-1,-1,105,107,-1,-1,109,111,113,115,117,119,121,-1,-1,-1,123,-1,-1,125,127,-1,-1,-1,-1,-1,-1,-1,-1,129,-1,-1,131,133,135,137,-1,-1,139,-1,141,143,145,-1,-1,-1,147,149,-1,-1,-1,151,153,155,-1,157,-1,159,161,163,165,-1,167,169,-1,-1,-1,-1,-1,-1,-1,-1,171,-1,-1,-1,-1,-1,173,-1,175,177,-1,-1,-1,-1,-1,-1,-1,-1,-1,-1,-1,-1,-1,-1,179,181,183,-1,185,-1,187,-1,189,-1,-1,-1,-1,-1,-1,-1,-1,-1],"loss_changes":[8.400952E2,5.8653473E1,9.809503E1,5.6066895E-1,1.0764001E1,9.822211E1,3.713437E1,0E0,5.4747224E-1,5.379914E0,6.629912E0,9.469107E0,3.9804077E0,2.9945776E1,0E0,0E0,0E0,5.1424356E0,1.7509518E0,4.969351E0,0E0,3.3948593E0,1.8581484E1,2.7666988E0,0E0,4.8957834E0,2.0093765E0,0E0,4.290847E0,0E0,3.192313E0,2.9064178E-1,4.7565928E0,1.1421041E0,5.400432E0,9.569987E0,4.325382E0,1.8573979E0,2.2316546E0,6.554127E-1,4.162278E0,1.4249878E0,3.3434818E0,1.5555959E0,2.0645044E0,0E0,1.4467885E0,0E0,0E0,4.7689557E-1,0E0,0E0,0E0,5.166478E0,9.606838E-2,8.536326E0,4.7844973E0,1.4152775E0,0E0,0E0,0E0,3.1149464E0,0E0,0E0,5.172243E-1,0E0,5.6599307E0,4.939379E0,8.3994293E-1,0E0,3.8008672E-1,4.5738697E-1,0E0,2.108643E0,0E0,0E0,0E0,0E0,0E0,4.715524E0,1.9352417E0,0E0,0E0,4.7898493E0,5.8549957E0,8.35639E-1,2.124053E0,2.2666714E0,1.2736893E-1,2.3106818E0,0E0,0E0,0E0,1.9111695E0,0E0,0E0,4.4784105E-1,1.4175415E-1,0E0,0E0,0E0,0E0,0E0,0E0,0E0,0E0,3.6776354E0,0E0,0E0,4.357622E0,1.4007341E0,2.3258886E0,4.5821433E0,0E0,0E0,2.5173683E0,0E0,1.2104981E0,3.3890588E0,1.5009286E0,0E0,0E0,0E0,2.4615932E0,1.3017416E0,0E0,0E0,0E0,5.9387207E-2,3.570323E-1,3.093903E0,0E0,1.6255555E0,0E0,7.0848906E-1,2.141643E0,6.539173E-1,4.6825802E-1,0E0,4.32127E-1,3.1612847E0,0E0,0E0,0E0,0E0,0E0,0E0,0E0,0E0,1.1860205E0,0E0,0E0,0E0,0E0,0E0,4.5532804E0,0E0,3.81744E0,1.544322E0,0E0,0E0,0E0,0E0,0E0,0E0,0E0,0E0,0E0,0E0,0E0,0E0,0E0,0E0,1.340115E0,1.4693909E0,3.6936803E0,0E0,2.3746758E0,0E0,5.680914E-1,0E0,8.551728E-1,0E0,0E0,0E0,0E0,0E0,0E0,0E0,0E0,0E0],"parents":[2147483647,0,0,1,1,2,2,3,3,4,4,5,5,6,6,8,8,9,9,10,10,11,11,12,12,13,13,17,17,18,18,19,19,21,21,22,22,23,23,25,25,26,26,28,28,30,30,31,31,32,32,33,33,34,34,35,35,36,36,37,37,38,38,39,39,40,40,41,41,42,42,43,43,44,44,46,46,49,49,53,53,54,54,55,55,56,56,57,57,61,61,64,64,66,66,67,67,68,68,70,70,71,71,73,73,79,79,80,80,83,83,84,84,85,85,86,86,87,87,88,88,89,89,93,93,96,96,97,97,106,106,109,109,110,110,111,111,112,112,115,115,117,117,118,118,119,119,123,123,124,124,128,128,129,129,130,130,132,132,134,134,135,135,136,136,137,137,139,139,140,140,149,149,155,155,157,157,158,158,173,173,174,174,175,175,177,177,179,179,181,181],"right_children":[2,4,6,8,10,12,14,-1,16,18,20,22,24,26,-1,-1,-1,28,30,32,-1,34,36,38,-1,40,42,-1,44,-1,46,48,50,52,54,56,58,60,62,64,66,68,70,72,74,-1,76,-1,-1,78,-1,-1,-1,80,82,84,86,88,-1,-1,-1,90,-1,-1,92,-1,94,96,98,-1,100,102,-1,104,-1,-1,-1,-1,-1,106,108,-1,-1,110,112,114,116,118,120,122,-1,-1,-1,124,-1,-1,126,128,-1,-1,-1,-1,-1,-1,-1,-1,130,-1,-1,132,134,136,138,-1,-1,140,-1,142,144,146,-1,-1,-1,148,150,-1,-1,-1,152,154,156,-1,158,-1,160,162,164,166,-1,168,170,-1,-1,-1,-1,-1,-1,-1,-1,172,-1,-1,-1,-1,-1,174,-1,176,178,-1,-1,-1,-1,-1,-1,-1,-1,-1,-1,-1,-1,-1,-1,180,182,184,-1,186,-1,188,-1,190,-1,-1,-1,-1,-1,-1,-1,-1,-1],"split_conditions":[9.6E1,2.9282477E0,2E0,2.840451E0,8.6E1,3E0,1.16E2,-3.6615226E-1,3.6E1,1.633E3,4.3333335E0,2.840451E0,1.14E2,2.410253E0,3.682555E-1,-4.2626236E-2,-2.5780743E-1,4.26E2,8.1E1,5.4E1,-2.6311666E-1,6.4851743E-1,5.9921284E0,1.1421368E0,3.6446938E-1,1.06E2,4.271E3,-3.17103E-1,3.7E0,-3.4820658E-1,3.291E3,9.4706E4,2E0,1.65E2,3.4E1,4.9E1,9.5862E4,1.1E2,4.24955E0,9.88E2,3.3E1,1E1,9.2041E4,9.502E4,2E0,-2.9442865E-1,9.2538E4,3.6931634E-1,8.433651E-2,9.1E1,2.8415105E-1,-3.5681298E-1,-3.1192852E-2,1E0,9.373267E-1,2.57E3,2.9282477E0,9.1709E4,2.1089357E-1,-2.7743134E-1,1.3282728E-1,3.1E1,-4.4231E-2,-5.6070585E-2,9.4792E4,-2.989919E-1,5.5E1,3.2E1,4E0,2.5842735E-1,9.4653E4,4E0,-5.6413505E-2,5E1,-2.8602475E-1,2.0081083E-1,-1.1301656E-1,-3.771169E-2,-2.8819898E-1,3E1,1E0,-1.0010123E-1,-3.651843E-1,1E0,4.609838E0,1.689E3,4.535E3,5.3E1,1.078E3,2.5467162E0,3.5493967E-1,-3.457454E-1,-8.2094185E-2,1.156E3,-2.605032E-1,3.0183998E-1,2.722591E0,3.15E2,8.5871086E-2,-9.068361E-3,-2.3217082E-1,2.948564E-1,3.8359083E-2,2.5902864E-1,-1.61847E-1,-2.9885235E-1,1.169E3,-3.4044957E-1,4.934342E-2,9.1116E4,9.88E2,3.1033356E0,2E0,3.221514E-2,-2.3384999E-1,9.4093E4,-7.790033E-2,4.271E3,1.56E2,6.9E0,-3.3650124E-1,-2.425711E-1,2.0001708E-1,2.81E2,9.394E4,-2.433429E-1,-1.40560875E-2,9.4483696E-2,9.028E4,9.4046E4,2.699844E0,-2.2856629E-1,2E0,-2.9154772E-1,2E0,3.9E1,1E0,4.4E1,2.9642203E-1,1E0,5.7E1,-3.1741488E-1,1.7080687E-2,-2.3400502E-1,2.7773413E-1,8.387868E-2,-2.6696932E-1,1.7802712E-1,-2.3949003E-1,3E0,3.1169325E-1,1.312776E-1,3.5837778E-1,-2.6683098E-1,-2.9557802E-2,2E0,-1.9368747E-1,9.5192E4,3.3179379E0,-1.1668487E-1,1.2870666E-1,-2.1687548E-1,2.1567725E-1,-3.5937324E-1,-5.526143E-2,-2.5875875E-1,-1.0914156E-2,3.4387323E-1,7.6541066E-2,2.4793811E-1,-2.5049147E-1,-1.361955E-1,1.8114133E-1,4.8E1,4.1E1,9.221E4,2.9973862E-1,1.18E2,3.1339562E-1,3.2E3,-1.8912084E-1,3.6E1,3.6573243E-1,2.3125727E-1,-2.6061845E-1,2.5215802E-1,-1.3210191E-1,-5.4328986E-2,1.6594486E-1,1.792464E-1,-8.720292E-2],"split_indices":[3,6,7,6,3,5,3,0,1,0,6,6,3,6,0,0,0,0,3,1,0,6,6,6,0,3,0,0,6,0,0,4,5,3,2,1,4,3,6,0,1,2,4,4,7,0,4,0,0,3,0,0,0,12,6,0,6,4,0,0,0,1,0,0,4,0,1,1,5,0,4,5,0,1,0,0,0,0,0,1,10,0,0,12,6,0,0,1,0,6,0,0,0,0,0,0,6,0,0,0,0,0,0,0,0,0,0,0,0,4,0,6,5,0,0,4,0,0,3,6,0,0,0,0,4,0,0,0,4,4,6,0,5,0,8,1,10,1,0,9,1,0,0,0,0,0,0,0,0,7,0,0,0,0,0,5,0,4,6,0,0,0,0,0,0,0,0,0,0,0,0,0,0,1,1,4,0,3,0,0,0,1,0,0,0,0,0,0,0,0,0],"split_type":[0,0,0,0,0,0,0,0,0,0,0,0,0,0,0,0,0,0,0,0,0,0,0,0,0,0,0,0,0,0,0,0,0,0,0,0,0,0,0,0,0,0,0,0,0,0,0,0,0,0,0,0,0,0,0,0,0,0,0,0,0,0,0,0,0,0,0,0,0,0,0,0,0,0,0,0,0,0,0,0,0,0,0,0,0,0,0,0,0,0,0,0,0,0,0,0,0,0,0,0,0,0,0,0,0,0,0,0,0,0,0,0,0,0,0,0,0,0,0,0,0,0,0,0,0,0,0,0,0,0,0,0,0,0,0,0,0,0,0,0,0,0,0,0,0,0,0,0,0,0,0,0,0,0,0,0,0,0,0,0,0,0,0,0,0,0,0,0,0,0,0,0,0,0,0,0,0,0,0,0,0,0,0,0,0,0,0,0,0,0,0],"sum_hessian":[1.0103228E3,4.1976953E2,5.905533E2,3.7377063E2,4.5998917E1,2.1881616E2,3.7173712E2,3.6863208E2,5.1385393E0,2.8568588E1,1.743033E1,1.3868301E2,8.0133156E1,6.875477E1,3.0298236E2,2.070997E0,3.0675423E0,1.5037331E1,1.3531257E1,1.5536411E1,1.8939183E0,4.6842068E1,9.184094E1,1.4614072E1,6.551908E1,2.6066187E1,4.268858E1,2.491952E0,1.2545379E1,6.8277545E0,6.7035027E0,1.04507265E1,5.0856843E0,1.1911485E1,3.4930584E1,6.6197655E1,2.564329E1,2.172016E0,1.2442056E1,1.0137363E1,1.5928823E1,3.75506E1,5.137981E0,8.022656E0,4.5227222E0,3.1403291E0,3.5631733E0,9.399343E0,1.0513847E0,3.103801E0,1.9818835E0,1.0632918E1,1.2785662E0,2.7213339E1,7.717243E0,4.3550243E1,2.2647411E1,2.4530218E1,1.1130712E0,1.153685E0,1.0183309E0,1.0394687E1,2.0473688E0,1.5478088E0,8.589555E0,2.7841225E0,1.3144701E1,7.620696E0,2.9929901E1,2.8660831E0,2.271898E0,6.7578263E0,1.26483E0,2.3557649E0,2.1669571E0,2.1151626E0,1.4480108E0,1.3704755E0,1.7333254E0,2.0504633E1,6.708706E0,1.0769949E0,6.6402483E0,2.5581202E1,1.7969044E1,2.8846648E0,1.9762747E1,7.167582E0,1.7362637E1,2.2582216E0,8.136465E0,7.0404177E0,1.5491366E0,1.0244297E1,2.9004042E0,5.1111503E0,2.5095458E0,2.7921255E1,2.0086467E0,1.1387194E0,1.1331786E0,5.7056494E0,1.0521767E0,1.1817942E0,1.1739708E0,2.7329473E0,1.7771685E1,5.602319E0,1.1063874E0,2.1004955E1,4.5762453E0,1.2708236E1,5.2608085E0,1.5783166E0,1.3063483E0,1.8618294E1,1.1444534E0,4.366939E0,2.800643E0,3.319562E0,1.4043074E1,1.124886E0,1.1333358E0,3.1052604E0,7.139036E0,1.0937549E0,1.4157909E0,1.0909705E0,2.6830284E1,2.69263E0,1.5079056E1,1.6911236E0,1.9313831E1,2.3337367E0,2.2425084E0,2.1224103E0,1.0585826E1,2.4676232E0,2.7931852E0,1.6032425E1,2.5858684E0,3.2296162E0,1.1373227E0,1.085653E0,1.7149901E0,1.0779879E0,2.241574E0,1.62431E0,1.4809502E0,2.2664557E0,4.8725805E0,1.6339726E0,2.5196312E1,1.6071646E0,1.0854656E0,1.3557922E1,1.5211331E0,6.680616E0,1.2633216E1,1.0854017E0,1.1571068E0,1.0234213E0,1.098989E0,9.479185E0,1.1066408E0,1.373619E0,1.0940044E0,1.4778679E1,1.2537462E0,1.3615035E0,1.2243649E0,1.1311152E0,1.1353403E0,4.8137503E0,8.744172E0,4.289241E0,2.391375E0,3.8954709E0,8.737745E0,2.6514716E0,2.162279E0,2.550592E0,6.19358E0,1.1526419E0,3.1365988E0,1.8913745E0,2.0040963E0,1.1740277E0,1.4774439E0,1.3927823E0,1.1578095E0],"tree_param":{"num_deleted":"0","num_feature":"13","num_nodes":"191","size_leaf_vector":"1"}},{"base_weights":[-5.789973E-3,-1.0376036E0,6.6469413E-1,-1.1496658E0,-2.1422432E-1,1.7265758E-1,9.7404826E-1,-3.4594458E-1,-1.2546174E-1,4.058212E-2,-8.545775E-1,-2.583502E-1,9.935919E-1,3.2265076E-1,3.4660476E-1,-3.3528462E-1,5.756685E-1,-9.8175424E-1,-2.311973E-1,-3.35852E-1,4.4166133E-1,4.2338774E-1,3.41971E-1,-3.723309E-1,8.678491E-1,4.003044E-2,-8.840277E-1,7.311987E-1,-1.2324268E-1,-6.885679E-2,-3.1485063E-1,-2.1051888E-1,9.2245944E-2,-2.1342333E-1,-8.247625E-1,7.733493E-1,3.5328183E-2,-1.9536091E-1,7.963948E-1,-9.0842766E-1,4.7210377E-2,1.0582371E0,3.4387743E-1,-2.6443854E-1,4.425682E-1,-3.0912107E-1,-4.0877547E-2,-1.2703753E-1,9.481347E-1,-8.445342E-1,-9.547339E-2,-9.959444E-1,1.6675869E-2,7.207971E-2,9.285887E-1,-2.5979346E-1,4.5859873E-1,-2.1712305E-1,2.2680448E-1,3.2328326E-1,-8.281503E-2,-9.728158E-1,-9.229834E-2,-6.735453E-1,2.6342854E-1,3.4920025E-1,-1.24904625E-1,-1.2267112E-1,2.7890137E-1,8.903611E-1,-3.0424604E-1,8.771699E-2,-1.3829966E-1,4.447617E-1,3.48202E-1,-9.920706E-1,-2.8546885E-1,2.159379E-1,-3.7079123E-1,-1.8886222E-1,-3.4907192E-1,-4.6656832E-1,2.1920462E-1,3.171237E-1,1.0517709E-1,3.250197E-2,2.480221E-1,-1.714223E-1,2.1717472E-1,2.1364799E-1,-2.5017384E-1,-3.2713622E-1,-3.412631E-1,-1.5969526E-3,-2.7918446E-1,4.8492527E-1,-2.5554574E-1,5.2719694E-1,-8.612557E-1,-8.938057E-2,3.6346284E-1,5.3608768E-2,-2.5849643E-1,-3.0881895E-3,2.5507635E-1,-6.93133E-2,-3.1735477E-1,-2.302658E-1,5.2726068E-2,3.802963E-1,-3.8594773E-1,-1.09818846E-1,-6.573328E-1,-2.3353238E-1,3.4270197E-1,3.4849837E-2,-2.2643045E-1,1.6412184E-1,-1.4972924E-1,6.8422206E-2,-2.0775995E-1,1.2851985E-1,2.6480126E-1,-2.9557513E-2,2.4720906E-1,-3.882846E-1,-3.97309E-2,6.270834E-2,6.933129E-1,-2.777204E-1,-1.8981466E-2,1.4750414E-1,-7.751206E-1,-1.1314358E0,2.302649E-1,1.5693342E-2,1.3890512E-1,-4.4354883E-1,4.908027E-1,-4.5237342E-1,4.3197253E-1,1.0452679E0,1.157473E-1,-1.9038594E-1,2.4274762E-1,5.1891E-1,-5.531297E-1,-3.0269927E-1,-3.4132883E-1,-3.604093E-1,-5.437887E-2,5.9834975E-1,-2.4812147E-1,-2.8396252E-1,1.0759904E-1,2.859241E-1,-1.3316643E-1,3.9431953E-1,-2.9397956E-1,-9.219456E-2,5.838222E-1,3.342672E-1,7.792358E-2,-5.565526E-1,5.2720606E-1,2.4846095E-1,-1.8311235E-1,-1.6554798E-1,7.539767E-1,1.5219378E-1,-8.5861605E-1,1.4543276E-1,-2.420781E-1,2.8321955E-1,-3.9798908E-2,2.2326283E-1,-4.060917E-2,8.579554E-1,-1.3628457E-1,-2.0089327E-1,-5.406474E-2,2.6216036E-2,2.4382456E-1,-2.084348E-1,1.01677865E-1,1.6883054E-1,1.170567E0,-3.0737382E-1,-2.8892808E-2,3.0865198E-1,1.1003073E-3,-1.3284734E-1,6.405635E-2,1.8400265E-1,-1.8965779E-1,3.9330354E-1,9.95074E-2],"categories":[],"categories_nodes":[],"categories_segments":[],"categories_sizes":[],"default_left":[0,0,0,0,0,0,0,0,0,0,0,0,0,0,0,0,0,0,0,0,0,0,0,0,0,0,0,0,0,0,0,0,0,0,0,0,0,0,0,0,0,0,0,0,0,0,0,0,0,0,0,0,0,0,0,0,0,0,0,0,0,0,0,0,0,0,0,0,0,0,0,0,0,0,0,0,0,0,0,0,0,0,0,0,0,0,0,0,0,0,0,0,0,0,0,0,0,0,0,0,0,0,0,0,0,0,0,0,0,0,0,0,0,0,0,0,0,0,0,0,0,0,0,0,0,0,0,0,0,0,0,0,0,0,0,0,0,0,0,0,0,0,0,0,0,0,0,0,0,0,0,0,0,0,0,0,0,0,0,0,0,0,0,0,0,0,0,0,0,0,0,0,0,0,0,0,0,0,0,0,0,0,0,0,0,0,0,0,0,0,0,0,0,0,0,0,0],"id":4,"left_children":[1,3,5,7,9,11,13,-1,-1,15,17,19,21,23,-1,25,27,29,31,33,35,37,-1,39,41,43,45,47,-1,-1,-1,-1,-1,49,51,53,55,57,59,61,63,65,67,-1,69,-1,-1,71,73,75,77,79,81,-1,83,-1,85,-1,87,-1,89,91,-1,93,95,-1,-1,97,-1,99,101,-1,-1,103,-1,105,107,109,111,113,-1,115,-1,-1,-1,117,-1,-1,-1,-1,-1,-1,119,-1,-1,121,-1,123,125,-1,-1,-1,-1,-1,-1,-1,-1,-1,-1,127,129,131,133,-1,135,-1,-1,-1,-1,-1,-1,137,-1,-1,-1,-1,-1,139,141,-1,143,145,147,149,151,-1,-1,153,155,157,159,161,163,-1,165,167,169,-1,171,-1,-1,173,-1,-1,-1,-1,-1,175,-1,-1,177,-1,-1,179,181,-1,183,-1,185,-1,187,-1,-1,-1,-1,-1,-1,189,191,-1,-1,-1,-1,-1,-1,193,195,-1,-1,-1,-1,-1,-1,-1,-1,-1,-1],"loss_changes":[5.650293E2,2.9435516E1,7.518558E1,2.3843384E-1,6.5230904E0,6.830389E1,3.549817E1,0E0,0E0,6.1061907E0,6.739998E-1,7.0329905E0,5.0582504E0,2.5906288E1,0E0,3.7223096E0,2.2180948E0,2.2444439E-1,1.0354093E0,6.6967087E0,1.7357278E0,3.6528225E0,0E0,6.87624E0,3.4405708E0,4.6883373E0,6.6019154E-1,2.197617E0,0E0,0E0,0E0,0E0,0E0,6.855247E0,3.2783794E0,3.689537E-1,3.0397625E0,1.6145409E0,2.4753604E0,2.1856594E-1,2.981682E0,4.772148E0,3.296774E0,0E0,3.190488E0,0E0,0E0,5.7362527E-1,4.4919205E-1,9.164362E-1,6.907358E0,2.3282185E0,2.0011191E0,0E0,1.4974594E-2,0E0,8.150562E-1,0E0,2.1499438E0,0E0,2.5448415E0,4.918499E-1,0E0,7.5664234E-1,4.0099316E0,0E0,0E0,3.9895937E0,0E0,2.5411973E0,1.2355664E0,0E0,0E0,8.0223346E-1,0E0,3.1141663E-1,1.1222992E0,3.9057188E0,3.1158552E0,1.6559752E0,0E0,6.720946E-1,0E0,0E0,0E0,1.2383088E0,0E0,0E0,0E0,0E0,0E0,0E0,8.1422275E-1,0E0,0E0,1.6989911E0,0E0,9.24168E-1,1.0364978E0,0E0,0E0,0E0,0E0,0E0,0E0,0E0,0E0,0E0,0E0,2.9737377E0,1.6952218E0,4.139589E0,8.72738E0,0E0,8.1480324E-2,0E0,0E0,0E0,0E0,0E0,0E0,1.8577746E0,0E0,0E0,0E0,0E0,0E0,3.2700143E0,2.9660048E0,0E0,1.1479625E0,4.917581E0,3.371215E-1,6.648884E-1,3.5446286E0,0E0,0E0,1.7895525E0,2.7217016E0,3.619592E0,1.2937984E0,2.1495724E-1,2.195101E0,0E0,1.4111259E0,3.4730954E0,2.5895398E0,0E0,1.8775177E0,0E0,0E0,1.7408619E0,0E0,0E0,0E0,0E0,0E0,7.478674E-1,0E0,0E0,1.8106768E0,0E0,0E0,1.1107147E-2,5.290501E-1,0E0,1.2353653E0,0E0,2.33314E0,0E0,6.013789E-1,0E0,0E0,0E0,0E0,0E0,0E0,9.23439E-1,4.4075704E-1,0E0,0E0,0E0,0E0,0E0,0E0,2.3411388E0,2.5977707E-1,0E0,0E0,0E0,0E0,0E0,0E0,0E0,0E0,0E0,0E0],"parents":[2147483647,0,0,1,1,2,2,3,3,4,4,5,5,6,6,9,9,10,10,11,11,12,12,13,13,15,15,16,16,17,17,18,18,19,19,20,20,21,21,23,23,24,24,25,25,26,26,27,27,33,33,34,34,35,35,36,36,37,37,38,38,39,39,40,40,41,41,42,42,44,44,47,47,48,48,49,49,50,50,51,51,52,52,54,54,56,56,58,58,60,60,61,61,63,63,64,64,67,67,69,69,70,70,73,73,75,75,76,76,77,77,78,78,79,79,81,81,85,85,92,92,95,95,97,97,98,98,109,109,110,110,111,111,112,112,114,114,121,121,127,127,128,128,130,130,131,131,132,132,133,133,134,134,137,137,138,138,139,139,140,140,141,141,142,142,144,144,145,145,146,146,148,148,151,151,157,157,160,160,163,163,164,164,166,166,168,168,170,170,177,177,178,178,185,185,186,186],"right_children":[2,4,6,8,10,12,14,-1,-1,16,18,20,22,24,-1,26,28,30,32,34,36,38,-1,40,42,44,46,48,-1,-1,-1,-1,-1,50,52,54,56,58,60,62,64,66,68,-1,70,-1,-1,72,74,76,78,80,82,-1,84,-1,86,-1,88,-1,90,92,-1,94,96,-1,-1,98,-1,100,102,-1,-1,104,-1,106,108,110,112,114,-1,116,-1,-1,-1,118,-1,-1,-1,-1,-1,-1,120,-1,-1,122,-1,124,126,-1,-1,-1,-1,-1,-1,-1,-1,-1,-1,128,130,132,134,-1,136,-1,-1,-1,-1,-1,-1,138,-1,-1,-1,-1,-1,140,142,-1,144,146,148,150,152,-1,-1,154,156,158,160,162,164,-1,166,168,170,-1,172,-1,-1,174,-1,-1,-1,-1,-1,176,-1,-1,178,-1,-1,180,182,-1,184,-1,186,-1,188,-1,-1,-1,-1,-1,-1,190,192,-1,-1,-1,-1,-1,-1,194,196,-1,-1,-1,-1,-1,-1,-1,-1,-1,-1],"split_conditions":[9.3E1,2.840451E0,2E0,9.2E1,3E0,3E0,1.16E2,-3.4594458E-1,-1.2546174E-1,2E0,2.7E1,1E0,1.14E2,2.722591E0,3.4660476E-1,2.515E3,4E0,4.71E2,3.2274976E0,1E0,9.2173E4,2.5467162E0,3.41971E-1,1.06E2,3E0,9.22E2,4.384E3,3.0315034E0,-1.2324268E-1,-6.885679E-2,-3.1485063E-1,-2.1051888E-1,9.2245944E-2,1.3377838E0,9.5134E4,9.132E4,3.3179379E0,1.05E2,5.8E1,9.4792E4,8E0,3.6E1,4.9E1,-2.6443854E-1,9.2296E4,-3.0912107E-1,-4.0877547E-2,5.1E1,2E0,3.837E3,1E0,9.0401E4,3.901E3,7.207971E-2,3.924448E0,-2.5979346E-1,9.5817E4,-2.1712305E-1,9.3023E4,3.2328326E-1,4.125263E0,5.7E1,-9.229834E-2,9.2097E4,6.2E1,3.4920025E-1,-1.24904625E-1,3.7E0,2.7890137E-1,9.2037E4,3.2904832E0,8.771699E-2,-1.3829966E-1,8.5E1,3.48202E-1,9.0067E4,1.25E2,5.67964E0,9.2663E4,9.012E4,-3.4907192E-1,1.11E2,2.1920462E-1,3.171237E-1,1.0517709E-1,5.5103545E0,2.480221E-1,-1.714223E-1,2.1717472E-1,2.1364799E-1,-2.5017384E-1,-3.2713622E-1,6.3E1,-1.5969526E-3,-2.7918446E-1,1.855063E0,-2.5554574E-1,2.9282477E0,9.3107E4,-8.938057E-2,3.6346284E-1,5.3608768E-2,-2.5849643E-1,-3.0881895E-3,2.5507635E-1,-6.93133E-2,-3.1735477E-1,-2.302658E-1,5.2726068E-2,2E0,1.3E2,1.53E2,1.56E2,-2.3353238E-1,1.11E2,3.4849837E-2,-2.2643045E-1,1.6412184E-1,-1.4972924E-1,6.8422206E-2,-2.0775995E-1,2E0,2.6480126E-1,-2.9557513E-2,2.4720906E-1,-3.882846E-1,-3.97309E-2,2E0,1.98E2,-2.777204E-1,3.6E1,5.3E1,4.703508E0,2.75E2,1.87E2,1.5693342E-2,1.3890512E-1,1.0757027E0,1.4356142E0,1.11E2,9.0401E4,3.311E3,1.26E2,-1.9038594E-1,6.8E0,3.1E1,4.71E2,-3.0269927E-1,6.2805114E0,-3.604093E-1,-5.437887E-2,2.338E3,-2.4812147E-1,-2.8396252E-1,1.0759904E-1,2.859241E-1,-1.3316643E-1,9.49E2,-2.9397956E-1,-9.219456E-2,4.4E1,3.342672E-1,7.792358E-2,3.410683E0,4.125263E0,2.4846095E-1,1.69E2,-1.6554798E-1,9.1965E4,1.5219378E-1,1.63E2,1.4543276E-1,-2.420781E-1,2.8321955E-1,-3.9798908E-2,2.2326283E-1,-4.060917E-2,3.901E3,2.840451E0,-2.0089327E-1,-5.406474E-2,2.6216036E-2,2.4382456E-1,-2.084348E-1,1.01677865E-1,2.1E1,4.486E3,-3.0737382E-1,-2.8892808E-2,3.0865198E-1,1.1003073E-3,-1.3284734E-1,6.405635E-2,1.8400265E-1,-1.8965779E-1,3.9330354E-1,9.95074E-2],"split_indices":[3,6,7,3,7,5,3,0,0,7,2,10,3,6,0,0,5,0,6,12,4,6,0,3,7,0,0,6,0,0,0,0,0,6,4,4,6,3,1,4,2,2,1,0,4,0,0,1,5,0,11,4,0,0,6,0,4,0,4,0,6,1,0,4,1,0,0,6,0,4,6,0,0,3,0,4,3,6,4,4,0,3,0,0,0,6,0,0,0,0,0,0,1,0,0,6,0,6,4,0,0,0,0,0,0,0,0,0,0,8,3,3,3,0,8,0,0,0,0,0,0,5,0,0,0,0,0,5,8,0,1,1,6,8,3,0,0,6,6,3,4,0,3,0,6,1,0,0,6,0,0,0,0,0,0,0,0,0,0,0,1,0,0,6,6,0,3,0,4,0,8,0,0,0,0,0,0,0,6,0,0,0,0,0,0,2,0,0,0,0,0,0,0,0,0,0,0],"split_type":[0,0,0,0,0,0,0,0,0,0,0,0,0,0,0,0,0,0,0,0,0,0,0,0,0,0,0,0,0,0,0,0,0,0,0,0,0,0,0,0,0,0,0,0,0,0,0,0,0,0,0,0,0,0,0,0,0,0,0,0,0,0,0,0,0,0,0,0,0,0,0,0,0,0,0,0,0,0,0,0,0,0,0,0,0,0,0,0,0,0,0,0,0,0,0,0,0,0,0,0,0,0,0,0,0,0,0,0,0,0,0,0,0,0,0,0,0,0,0,0,0,0,0,0,0,0,0,0,0,0,0,0,0,0,0,0,0,0,0,0,0,0,0,0,0,0,0,0,0,0,0,0,0,0,0,0,0,0,0,0,0,0,0,0,0,0,0,0,0,0,0,0,0,0,0,0,0,0,0,0,0,0,0,0,0,0,0,0,0,0,0,0,0,0,0,0,0],"sum_hessian":[8.1473816E2,3.206853E2,4.9405286E2,2.8191965E2,3.8765667E1,1.9131657E2,3.027363E2,2.8000995E2,1.9097012E0,2.8401068E1,1.0364599E1,1.2590112E2,6.541544E1,6.651904E1,2.3621724E2,1.6901886E1,1.149918E1,8.130911E0,2.2336886E0,1.13819786E2,1.2081342E1,1.4152831E1,5.126261E1,2.9381975E1,3.7137066E1,1.05875435E1,6.3143425E0,1.015664E1,1.3425401E0,1.03432E0,7.096591E0,1.0307069E0,1.2029817E0,9.217472E1,2.1645058E1,6.1543407E0,5.927001E0,5.5021133E0,8.650717E0,1.2387604E1,1.699437E1,2.6491564E1,1.0645502E1,2.8571575E0,7.7303863E0,4.9645605E0,1.3497821E0,2.132904E0,8.023736E0,1.3544185E1,7.863054E1,1.7833416E1,3.8116426E0,1.9625978E0,4.191743E0,1.5597565E0,4.3672447E0,2.1263778E0,3.3757358E0,6.3833423E0,2.2673752E0,1.0629119E1,1.758485E0,3.433569E0,1.35608015E1,2.4915167E1,1.5763975E0,6.365981E0,4.279521E0,4.712525E0,3.0178614E0,1.0006504E0,1.1322536E0,3.3002033E0,4.7235327E0,1.0103398E1,3.4407861E0,3.6997944E1,4.16326E1,3.4326923E0,1.4400723E1,2.4798274E0,1.3318154E0,2.7512689E0,1.4404739E0,2.5287218E0,1.8385228E0,1.2381616E0,2.1375742E0,1.1266987E0,1.1406765E0,8.347603E0,2.2815158E0,1.237511E0,2.196058E0,1.1785331E1,1.775471E0,3.5386178E0,2.8273633E0,1.0181154E0,3.6944096E0,1.9809619E0,1.0368994E0,2.014305E0,1.2858981E0,1.1628011E0,8.940598E0,1.3576052E0,2.083181E0,2.935112E1,7.646823E0,2.2512358E1,1.912024E1,1.4073306E0,2.0253615E0,1.0181245E0,1.461703E0,1.2701504E0,1.2585713E0,1.0043635E0,1.2771523E0,6.913508E0,4.871823E0,1.3535099E0,2.185108E0,1.286896E0,1.5404673E0,1.5164992E1,1.4186128E1,2.4784672E0,5.168356E0,1.6794811E1,5.717546E0,1.2284082E1,6.8361573E0,1.0136396E0,1.011722E0,2.5936484E0,4.3198595E0,6.2382593E0,8.926733E0,8.311506E0,5.8746214E0,1.1167709E0,4.051585E0,1.1145798E1,5.6490145E0,2.853239E0,2.864307E0,1.119576E1,1.0883228E0,5.392865E0,1.443292E0,1.4835424E0,1.110106E0,2.8771896E0,1.4426696E0,2.491746E0,3.7465134E0,1.3466567E0,7.580076E0,7.256091E0,1.0554153E0,2.0964727E0,3.7781487E0,1.3082612E0,2.7433238E0,1.7638539E0,9.381944E0,1.11563E0,4.5333843E0,1.0176011E0,1.8467058E0,3.4634566E0,1.9294086E0,1.2566441E0,1.2351018E0,5.3514404E0,2.2286358E0,1.0127579E0,1.0837148E0,2.001417E0,1.7767318E0,1.2183088E0,1.5250151E0,4.486058E0,4.8958855E0,3.4403315E0,1.0930529E0,4.2891498E0,1.0622905E0,1.0460509E0,1.182585E0,3.035738E0,1.45032E0,3.7116587E0,1.1842268E0],"tree_param":{"num_deleted":"0","num_feature":"13","num_nodes":"197","size_leaf_vector":"1"}},{"base_weights":[-7.510456E-3,-9.517297E-1,6.152492E-1,-3.3010653E-1,-1.03470474E-1,1.6334951E-1,9.203886E-1,-3.9382645E-1,5.202574E-1,-2.0862211E-1,9.4396156E-1,2.7413327E-1,3.321612E-1,3.4531995E-4,-7.689655E-1,7.2295827E-1,-2.0925412E-1,-3.7570664E-1,7.498991E-2,3.9816454E-1,3.263027E-1,-3.7004918E-1,7.0432997E-1,-2.8895572E-1,2.984619E-1,-3.1398636E-1,-4.0097702E-1,1.0300125E0,3.651373E-2,-4.684351E-1,1.1539739E-1,7.30891E-1,-1.9751187E-1,-3.6520725E-1,5.9262097E-1,-7.9343706E-1,-6.546186E-2,8.0109304E-1,8.728874E-2,-8.350879E-2,-2.7718335E-1,-2.7510774E-1,-5.6385286E-2,3.3426106E-1,6.8477415E-2,-4.5568773E-1,2.169813E-1,-3.4955692E-1,-8.3973193E-1,-2.2072949E-1,5.597934E-1,-1.2402844E-1,9.193746E-1,2.431146E-1,-5.336326E-1,-2.2339182E-1,5.466659E-2,7.8129363E-1,-5.0435703E-2,-9.7075325E-1,6.163668E-3,1.4828509E-1,-2.6274955E-1,3.738082E-1,9.0803725E-1,2.1112473E-1,-5.3445953E-1,-4.3504146E-1,2.52263E-1,-1.9410564E-1,4.686668E-1,-2.3744963E-1,1.3334348E-2,-3.96883E-1,1.8107893E-1,-3.067141E-1,-2.7057105E-1,3.0670848E-1,-6.114868E-1,-1.1539666E-1,2.82369E-1,7.597249E-2,1.0253228E0,4.427166E-1,-2.3124507E-1,-1.7776155E-1,-8.4499276E-1,-3.8370136E-2,3.1151545E-1,-3.11864E-1,-9.228004E-2,-2.269715E-1,4.413542E-1,7.839082E-1,-1.6738352E-1,9.6301955E-1,5.359175E-2,1.8019E-2,-2.6697844E-1,-8.57273E-1,1.3228261E-1,2.46174E-1,-5.3189375E-2,-2.175841E-1,-6.0979754E-1,-2.4094278E-1,8.710341E-2,1.5598091E-1,-7.7487505E-3,-2.5775808E-1,2.1425009E-2,3.364568E-1,4.9152147E-2,-3.1550702E-1,6.723836E-1,3.5477734E-1,-5.7063115E-1,-4.830463E-2,-9.712906E-1,6.9824463E-1,-1.8008955E-1,3.815462E-2,2.8387284E-1,3.214234E-1,5.1215696E-1,-3.0908358E-1,-3.507881E-2,1.7204392E-1,-1.9736475E-1,-7.350638E-1,1.2283647E-1,-2.573103E-1,-2.979531E-1,-2.2778985E-1,1.0712571E-1,8.373748E-1,-9.0657584E-2,-7.441869E-2,6.0680234E-1,-2.8419545E-1,3.8470052E-2,-6.705754E-2,-3.1767222E-1,-2.921004E-2,2.9230693E-1,-1.7496985E-1,1.0128389E-1,-8.470501E-2,2.7273694E-1,2.6064772E-2,-1.0157735E0,-3.969987E-1,4.5011023E-1,-7.2752094E-1,4.1031885E-1,1.5115453E-2,2.8613874E-1,1.2185312E-2,2.4705051E-1,1.5709381E-1,-1.5887019E-1,-3.3410203E-1,-1.0984077E-1,1.8667984E-1,-2.58695E-1,7.6560235E-1,-8.938728E-2,-9.145158E-1,-3.1289086E-2,-1.4755632E-1,2.772791E-1,2.9453018E-1,1.8552484E-1,-2.322425E-1,5.427253E-1,-4.8836995E-2,-3.213644E-1,-5.9850565E-3,9.033719E-2,5.1432375E-2,1.9282922E-1],"categories":[],"categories_nodes":[],"categories_segments":[],"categories_sizes":[],"default_left":[0,0,0,0,0,0,0,0,0,0,0,0,0,0,0,0,0,0,0,0,0,0,0,0,0,0,0,0,0,0,0,0,0,0,0,0,0,0,0,0,0,0,0,0,0,0,0,0,0,0,0,0,0,0,0,0,0,0,0,0,0,0,0,0,0,0,0,0,0,0,0,0,0,0,0,0,0,0,0,0,0,0,0,0,0,0,0,0,0,0,0,0,0,0,0,0,0,0,0,0,0,0,0,0,0,0,0,0,0,0,0,0,0,0,0,0,0,0,0,0,0,0,0,0,0,0,0,0,0,0,0,0,0,0,0,0,0,0,0,0,0,0,0,0,0,0,0,0,0,0,0,0,0,0,0,0,0,0,0,0,0,0,0,0,0,0,0,0,0,0,0,0,0,0,0,0,0,0,0,0,0],"id":5,"left_children":[1,3,5,-1,7,9,11,13,15,17,19,21,-1,23,25,27,-1,29,31,33,-1,35,37,39,-1,-1,41,43,45,47,49,51,53,55,57,59,61,63,65,67,-1,-1,69,-1,-1,71,-1,73,75,77,79,-1,81,83,85,-1,-1,87,-1,89,-1,91,-1,93,95,-1,97,99,-1,-1,101,-1,-1,103,-1,-1,105,107,109,-1,-1,-1,111,113,-1,115,117,-1,-1,-1,-1,-1,119,121,-1,123,-1,-1,-1,125,127,-1,-1,129,131,-1,-1,-1,-1,-1,-1,-1,-1,133,135,137,139,-1,141,143,145,-1,-1,-1,147,-1,-1,-1,-1,149,151,153,-1,-1,-1,155,-1,-1,157,-1,-1,-1,-1,-1,-1,-1,-1,-1,-1,159,161,163,165,167,169,-1,-1,-1,-1,-1,-1,-1,-1,-1,-1,171,173,175,-1,-1,-1,-1,177,-1,179,-1,-1,-1,-1,-1,-1],"loss_changes":[3.8543195E2,3.2727997E1,5.431401E1,0E0,7.4384356E0,4.6777103E1,2.8135529E1,4.114493E0,3.7424028E0,5.2154727E0,3.6420403E0,1.5267738E1,0E0,4.4786844E0,1.0369568E0,2.436318E0,0E0,3.1985798E0,7.5467277E0,2.0579982E0,0E0,2.8288808E0,1.8892746E0,1.4960734E0,0E0,0E0,1.3267846E0,2.9060173E-1,1.9062293E0,2.2789488E0,1.8816106E0,3.0478835E0,4.5797486E0,7.873539E-1,1.6052101E0,1.3560057E0,2.569122E0,9.511566E-1,2.511203E0,3.6838422E0,0E0,0E0,2.0751112E0,0E0,0E0,5.945409E-1,0E0,2.3082528E0,1.1186075E0,1.7164485E0,2.2898207E0,0E0,5.117283E-1,3.1116788E0,1.7730827E0,0E0,0E0,2.0974517E0,0E0,2.7945042E-2,0E0,3.5156987E0,0E0,3.2472587E0,7.058277E-1,0E0,7.596708E-1,2.043308E0,0E0,0E0,9.649142E-1,0E0,0E0,1.5582523E0,0E0,0E0,1.6134729E0,2.8450096E-1,8.386984E-1,0E0,0E0,0E0,5.705757E-1,2.3144598E0,0E0,2.1620376E0,6.203232E-1,0E0,0E0,0E0,0E0,0E0,1.6734111E0,4.6834636E-1,0E0,4.3489838E-1,0E0,0E0,0E0,4.882667E-1,1.8777348E0,0E0,0E0,4.599983E0,2.4058242E0,0E0,0E0,0E0,0E0,0E0,0E0,0E0,0E0,1.3120651E0,1.7943377E0,8.483331E-1,1.6413198E0,0E0,2.4755049E-1,1.6467092E0,9.545953E-1,0E0,0E0,0E0,2.0912628E0,0E0,0E0,0E0,0E0,2.2274308E0,2.9515285E0,3.9432225E0,0E0,0E0,0E0,7.273164E-1,0E0,0E0,3.9953792E-1,0E0,0E0,0E0,0E0,0E0,0E0,0E0,0E0,0E0,0E0,1.3142297E0,7.247257E-2,3.7750545E0,1.8505635E0,7.405386E-1,2.9756696E0,0E0,0E0,0E0,0E0,0E0,0E0,0E0,0E0,0E0,0E0,6.594076E-1,2.48005E0,4.6037102E-1,0E0,0E0,0E0,0E0,7.857205E-2,0E0,3.5535097E-3,0E0,0E0,0E0,0E0,0E0,0E0],"parents":[2147483647,0,0,1,1,2,2,4,4,5,5,6,6,7,7,8,8,9,9,10,10,11,11,13,13,14,14,15,15,17,17,18,18,19,19,21,21,22,22,23,23,26,26,27,27,28,28,29,29,30,30,31,31,32,32,33,33,34,34,35,35,36,36,37,37,38,38,39,39,42,42,45,45,47,47,48,48,49,49,50,50,52,52,53,53,54,54,57,57,59,59,61,61,63,63,64,64,66,66,67,67,70,70,73,73,76,76,77,77,78,78,82,82,83,83,85,85,86,86,92,92,93,93,95,95,99,99,100,100,103,103,104,104,113,113,114,114,115,115,116,116,118,118,119,119,120,120,124,124,129,129,130,130,131,131,135,135,138,138,149,149,150,150,151,151,152,152,153,153,154,154,165,165,166,166,167,167,172,172,174,174],"right_children":[2,4,6,-1,8,10,12,14,16,18,20,22,-1,24,26,28,-1,30,32,34,-1,36,38,40,-1,-1,42,44,46,48,50,52,54,56,58,60,62,64,66,68,-1,-1,70,-1,-1,72,-1,74,76,78,80,-1,82,84,86,-1,-1,88,-1,90,-1,92,-1,94,96,-1,98,100,-1,-1,102,-1,-1,104,-1,-1,106,108,110,-1,-1,-1,112,114,-1,116,118,-1,-1,-1,-1,-1,120,122,-1,124,-1,-1,-1,126,128,-1,-1,130,132,-1,-1,-1,-1,-1,-1,-1,-1,134,136,138,140,-1,142,144,146,-1,-1,-1,148,-1,-1,-1,-1,150,152,154,-1,-1,-1,156,-1,-1,158,-1,-1,-1,-1,-1,-1,-1,-1,-1,-1,160,162,164,166,168,170,-1,-1,-1,-1,-1,-1,-1,-1,-1,-1,172,174,176,-1,-1,-1,-1,178,-1,180,-1,-1,-1,-1,-1,-1],"split_conditions":[9.5E1,2.840451E0,2E0,-3.3010653E-1,8.6E1,3E0,1.16E2,1.633E3,4.3333335E0,2E0,1.14E2,2.410253E0,3.321612E-1,1.493E3,8.1E1,5.4E1,-2.0925412E-1,9.504E4,1.13E2,1.1421368E0,3.263027E-1,9.2811E4,4.271E3,9.4378E4,2.984619E-1,-3.1398636E-1,3.0315034E0,9.2E1,2E0,1E0,3.901E3,2.2231815E0,9.212E4,1.09E2,5.8E1,4.334E3,5.9E1,1E1,9.2041E4,9.4012E4,-2.7718335E-1,-2.7510774E-1,3.291E3,3.3426106E-1,6.8477415E-2,2.237E3,2.169813E-1,1E0,2.5E1,1.14E3,4.3E1,-1.2402844E-1,9.133E4,3.984E3,1E0,-2.2339182E-1,5.466659E-2,3.1E1,-5.0435703E-2,2.186352E0,6.163668E-3,3.5E1,-2.6274955E-1,3.3E1,4E0,2.1112473E-1,4.535E3,2E0,2.52263E-1,-1.9410564E-1,9.2538E4,-2.3744963E-1,1.3334348E-2,9.2663E4,1.8107893E-1,-3.067141E-1,2E0,3.8E1,1.71E2,-1.1539666E-1,2.82369E-1,7.597249E-2,4.664261E0,1.463E3,-2.3124507E-1,9.4143E4,1.493E3,-3.8370136E-2,3.1151545E-1,-3.11864E-1,-9.228004E-2,-2.269715E-1,2.399E3,3.0315034E0,-1.6738352E-1,3E0,5.359175E-2,1.8019E-2,-2.6697844E-1,2.6E1,1.71E2,2.46174E-1,-5.3189375E-2,9.0887E4,2.273E3,-2.4094278E-1,8.710341E-2,1.5598091E-1,-7.7487505E-3,-2.5775808E-1,2.1425009E-2,3.364568E-1,4.9152147E-2,5.5E1,5.1901593E0,1.31E2,9.5134E4,-4.830463E-2,9.2691E4,2E0,2.7E1,3.815462E-2,2.8387284E-1,3.214234E-1,4.9E1,-3.0908358E-1,-3.507881E-2,1.7204392E-1,-1.9736475E-1,1.538E3,3.0315034E0,1.555E3,-2.979531E-1,-2.2778985E-1,1.0712571E-1,9.0163E4,-9.0657584E-2,-7.441869E-2,2.713E3,-2.8419545E-1,3.8470052E-2,-6.705754E-2,-3.1767222E-1,-2.921004E-2,2.9230693E-1,-1.7496985E-1,1.0128389E-1,-8.470501E-2,2.7273694E-1,1.21E2,9.0304E4,9.1206E4,5.713809E0,6.556773E0,2E0,1.5115453E-2,2.8613874E-1,1.2185312E-2,2.4705051E-1,1.5709381E-1,-1.5887019E-1,-3.3410203E-1,-1.0984077E-1,1.8667984E-1,-2.58695E-1,9.212E4,3.901E3,1.18E2,-3.1289086E-2,-1.4755632E-1,2.772791E-1,2.9453018E-1,4.24955E0,-2.322425E-1,1.53E2,-4.8836995E-2,-3.213644E-1,-5.9850565E-3,9.033719E-2,5.1432375E-2,1.9282922E-1],"split_indices":[3,6,7,0,3,5,3,0,6,8,3,6,0,0,3,1,0,4,8,6,0,4,0,4,0,0,6,8,5,12,0,6,4,3,1,0,1,2,4,4,0,0,0,0,0,0,0,10,2,0,1,0,4,0,11,0,0,1,0,6,0,1,0,1,5,0,0,8,0,0,4,0,0,4,0,0,5,1,3,0,0,0,6,0,0,4,0,0,0,0,0,0,0,6,0,7,0,0,0,2,8,0,0,4,0,0,0,0,0,0,0,0,0,1,6,3,4,0,4,5,2,0,0,0,1,0,0,0,0,0,6,0,0,0,0,4,0,0,0,0,0,0,0,0,0,0,0,0,0,3,4,4,6,6,5,0,0,0,0,0,0,0,0,0,0,4,0,3,0,0,0,0,6,0,3,0,0,0,0,0,0],"split_type":[0,0,0,0,0,0,0,0,0,0,0,0,0,0,0,0,0,0,0,0,0,0,0,0,0,0,0,0,0,0,0,0,0,0,0,0,0,0,0,0,0,0,0,0,0,0,0,0,0,0,0,0,0,0,0,0,0,0,0,0,0,0,0,0,0,0,0,0,0,0,0,0,0,0,0,0,0,0,0,0,0,0,0,0,0,0,0,0,0,0,0,0,0,0,0,0,0,0,0,0,0,0,0,0,0,0,0,0,0,0,0,0,0,0,0,0,0,0,0,0,0,0,0,0,0,0,0,0,0,0,0,0,0,0,0,0,0,0,0,0,0,0,0,0,0,0,0,0,0,0,0,0,0,0,0,0,0,0,0,0,0,0,0,0,0,0,0,0,0,0,0,0,0,0,0,0,0,0,0,0,0],"sum_hessian":[6.5347656E2,2.5949927E2,3.939773E2,2.205577E2,3.8941578E1,1.5941908E2,2.3455821E2,2.6823414E1,1.2118164E1,1.0846627E2,5.095282E1,5.3152794E1,1.8140543E2,1.3567082E1,1.32563305E1,1.073725E1,1.3809136E0,6.805076E1,4.041551E1,1.1405935E1,3.9546886E1,2.1339119E1,3.1813677E1,1.1059428E1,2.507655E0,6.504426E0,6.751905E0,7.072942E0,3.6643088E0,5.728128E1,1.076948E1,1.1368888E1,2.904662E1,2.1373417E0,9.268594E0,8.256841E0,1.3082278E1,2.7243177E1,4.570498E0,9.21083E0,1.8485985E0,2.0382686E0,4.7136364E0,6.0481305E0,1.0248111E0,2.3304975E0,1.3338113E0,4.485992E1,1.2421359E1,6.4182363E0,4.3512435E0,1.439001E0,9.929887E0,1.268904E1,1.635758E1,1.0495996E0,1.0877421E0,7.405037E0,1.8635563E0,6.621772E0,1.6350693E0,1.0998324E1,2.0839536E0,6.353553E0,2.0889626E1,2.2287834E0,2.3417149E0,7.0566444E0,2.1541848E0,2.1089613E0,2.6046748E0,1.0457623E0,1.2847351E0,4.32939E1,1.5660232E0,8.800815E0,3.6205447E0,2.8229523E0,3.5952837E0,1.2493569E0,3.1018865E0,1.8278444E0,8.102043E0,1.1072651E1,1.6163895E0,8.366247E0,7.9913325E0,1.7431073E0,5.6619296E0,5.4851756E0,1.1365962E0,2.3037875E0,8.694537E0,4.5219464E0,1.8316061E0,1.9127493E1,1.7621324E0,1.1871805E0,1.1545343E0,3.7526495E0,3.3039951E0,1.5111196E0,1.0935553E0,2.4599867E1,1.869403E1,1.6356788E0,1.984866E0,1.3766702E0,1.446282E0,2.448868E0,1.1464158E0,7.0166564E0,1.0853863E0,2.4873023E0,8.585349E0,3.592939E0,4.773308E0,1.6001987E0,6.391134E0,6.0641665E0,2.6303704E0,1.2497061E0,3.2722404E0,1.4310701E1,4.8167915E0,2.7243853E0,1.028264E0,2.2961457E0,1.0078496E0,9.301382E0,1.5298485E1,1.061007E1,8.083961E0,1.4208668E0,1.0664355E0,7.4627233E0,1.1226252E0,1.0638797E0,2.5290592E0,2.8705666E0,1.9027413E0,1.042771E0,5.348363E0,1.7291148E0,4.335052E0,1.4076396E0,1.2227309E0,1.7010199E0,3.1157718E0,2.7505553E0,6.5508265E0,5.828138E0,9.470347E0,6.1728377E0,4.4372325E0,1.1463482E0,6.3163753E0,1.0287124E0,1.5003468E0,1.4814501E0,1.2691053E0,5.0721574E0,1.4786693E0,1.7210145E0,4.1071234E0,5.7113256E0,3.7590218E0,4.3886523E0,1.7841856E0,1.6259824E0,2.8112502E0,3.6563256E0,2.0549998E0,1.6965237E0,2.062498E0,1.1087164E0,3.2799358E0,1.0377823E0,1.0172176E0,1.0137631E0,1.048735E0],"tree_param":{"num_deleted":"0","num_feature":"13","num_nodes":"181","size_leaf_vector":"1"}},{"base_weights":[-8.999135E-3,-9.3620974E-1,5.350573E-1,-3.2075635E-1,-1.7995343E-1,1.1831872E-1,8.4458107E-1,-3.5238948E-1,4.6864176E-1,-2.0567338E-1,8.7752634E-1,2.1463986E-1,3.2205135E-1,-8.822074E-3,-6.92555E-1,1.4659806E-2,2.7503446E-1,-8.8044196E-1,-1.3935907E-1,3.794616E-1,3.1453604E-1,-3.1485453E-1,6.708024E-1,-2.649558E-1,2.5458685E-1,-9.0363044E-1,-2.556164E-1,1.9074054E-1,-3.82358E-1,-2.977681E-1,-1.2383967E-2,-6.761833E-2,-8.386135E-1,-3.8648936E-1,6.3196987E-1,-7.662663E-1,3.1873353E-2,8.946635E-1,1.91572E-1,-7.959022E-2,-2.4688794E-1,-2.956118E-1,-6.078311E-2,-6.284304E-1,8.429832E-2,4.967216E-2,-2.1858115E-1,-3.0066237E-1,1.18952E-1,-3.0140814E-1,-2.4399932E-1,-2.2901164E-1,6.479305E-2,8.35066E-1,-5.994865E-2,-2.8735065E-1,-4.3041435E-1,3.7530494E-1,-3.7266847E-1,3.1079644E-1,-1.3165611E-1,-1.2028914E-1,2.5268087E-1,-3.904587E-1,2.187276E-1,-3.0423215E-2,-2.411048E-1,-1.2732199E-1,-7.9861236E-1,-1.608208E-1,3.8244265E-1,-1.8677695E-1,7.055027E-2,-3.0989265E-2,3.3357483E-1,-6.795622E-2,-2.2162043E-1,-9.643274E-2,5.638221E-1,-1.4325728E-2,-6.39462E-1,-7.7568054E-1,2.6195842E-1,-2.6792812E-1,1.70244E-2,-2.64728E-1,4.0678333E-2,-3.0143762E-1,-2.514417E-1,-6.517709E-1,4.1454843E-1,6.8273014E-1,-2.643576E-1,-9.0992235E-2,4.3296255E-2,2.4127826E-1,-1.0338593E-2,-2.3607235E-1,1.9862102E-1,-2.610339E-1,-6.466481E-2,-3.622097E-1,1.6152551E-2,-1.609432E-1,2.2891971E-1,4.0114155E-1,-1.828661E-1,-6.092962E-1,2.2546685E-1,-2.2570634E-1,1.1452442E-1,-8.095801E-1,1.4097196E-1,5.9906507E-1,-2.3943612E-1,3.7015042E-1,3.0912188E-1,-5.4754996E-1,2.1038157E-1,1.8532321E-1,-2.0435695E-1,-3.7952103E-2,1.9318463E-1,-8.2992965E-1,5.5530343E-2,6.4956504E-1,-1.5472895E-1,-6.4426675E-2,-2.9421717E-1,8.2201284E-1,4.5141976E-2,-2.1926244E-1,1.1356657E-1,5.788852E-1,-1.1067097E-1,-2.3872353E-1,1.63569E-2,2.138339E-1,-6.403278E-2,-7.669555E-2,-2.793379E-1,7.956408E-1,-8.096486E-2,-2.1126862E-1,2.8966134E-2,-1.4089048E-1,1.2691729E-1,2.9237664E-1,4.8231345E-2,1.2396403E-1,-1.3451669E-1,7.248657E-1,-4.496626E-2,5.3753335E-2,9.3931866E-1,6.570357E-1,-4.082171E-1,3.2649696E-2,8.2224923E-1,3.384142E-1,9.779926E-2,2.3301922E-1,5.5407517E-2,-2.4219206E-1,8.325593E-2,4.8971854E-2,2.7814993E-1],"categories":[],"categories_nodes":[],"categories_segments":[],"categories_sizes":[],"default_left":[0,0,0,0,0,0,0,0,0,0,0,0,0,0,0,0,0,0,0,0,0,0,0,0,0,0,0,0,0,0,0,0,0,0,0,0,0,0,0,0,0,0,0,0,0,0,0,0,0,0,0,0,0,0,0,0,0,0,0,0,0,0,0,0,0,0,0,0,0,0,0,0,0,0,0,0,0,0,0,0,0,0,0,0,0,0,0,0,0,0,0,0,0,0,0,0,0,0,0,0,0,0,0,0,0,0,0,0,0,0,0,0,0,0,0,0,0,0,0,0,0,0,0,0,0,0,0,0,0,0,0,0,0,0,0,0,0,0,0,0,0,0,0,0,0,0,0,0,0,0,0,0,0,0,0,0,0,0,0,0,0,0,0,0,0,0,0],"id":6,"left_children":[1,3,5,-1,7,9,11,13,15,17,19,21,-1,23,25,27,-1,29,31,33,-1,35,37,39,-1,41,43,-1,45,-1,-1,47,49,51,53,55,57,59,61,63,-1,-1,-1,65,-1,-1,-1,67,69,-1,71,-1,-1,73,-1,-1,75,77,79,-1,-1,81,-1,83,-1,-1,-1,85,87,89,91,-1,-1,-1,-1,93,-1,-1,95,97,99,101,103,-1,105,-1,107,-1,109,111,113,115,117,-1,-1,-1,-1,-1,-1,-1,-1,-1,-1,119,-1,121,-1,123,125,-1,-1,127,-1,129,131,133,-1,135,137,-1,-1,-1,-1,139,-1,141,143,145,-1,147,149,-1,-1,151,-1,-1,-1,-1,-1,-1,-1,153,-1,-1,155,-1,-1,-1,-1,-1,-1,157,-1,-1,159,161,163,-1,165,-1,-1,-1,-1,-1,-1,-1,-1],"loss_changes":[2.649785E2,1.9341187E1,4.2601913E1,0E0,3.548235E0,3.5170925E1,2.713971E1,2.8533242E0,1.3663855E0,4.3749266E0,3.2405586E0,1.2732025E1,0E0,3.1206439E0,9.016919E-1,1.3245633E0,0E0,7.875557E-1,4.593923E0,2.6592994E0,0E0,3.8859198E0,2.8503933E0,1.0634637E0,0E0,2.52275E-1,1.2558545E0,0E0,7.466794E-1,0E0,0E0,3.7387927E0,5.98073E-1,1.008708E0,1.8174298E0,2.7987146E-1,2.211864E0,4.021473E0,2.179436E0,2.622674E0,0E0,0E0,0E0,2.41045E-1,0E0,0E0,0E0,3.1913295E0,3.6011868E0,0E0,7.241914E-1,0E0,0E0,2.2051077E0,0E0,0E0,5.8941424E-1,1.3061514E0,6.934669E-1,0E0,0E0,2.1567245E0,0E0,1.524482E0,0E0,0E0,0E0,3.7768624E0,8.3734417E-1,7.047629E0,5.040797E0,0E0,0E0,0E0,0E0,2.3022683E-1,0E0,0E0,1.0495827E0,2.6946042E0,2.2212124E-1,1.1840597E0,1.3249846E0,0E0,1.460186E0,0E0,3.149494E0,0E0,1.5489287E0,2.7408547E0,1.5502102E0,1.5061874E0,1.2788057E0,0E0,0E0,0E0,0E0,0E0,0E0,0E0,0E0,0E0,0E0,2.0016534E0,0E0,5.5991024E-1,0E0,1.173981E0,3.3667245E0,0E0,0E0,1.4744854E0,0E0,1.1210468E0,1.2727777E0,1.8652351E0,0E0,8.9496505E-1,9.9454606E-1,0E0,0E0,0E0,0E0,3.7337303E-2,0E0,1.5266519E0,1.1800923E0,8.54961E-1,0E0,5.1207495E-1,8.663842E-1,0E0,0E0,1.038249E0,0E0,0E0,0E0,0E0,0E0,0E0,0E0,6.00687E-1,0E0,0E0,2.8962197E0,0E0,0E0,0E0,0E0,0E0,0E0,3.5751557E-1,0E0,0E0,4.1998625E-1,1.0028541E-1,1.9371637E0,0E0,2.8295803E-1,0E0,0E0,0E0,0E0,0E0,0E0,0E0,0E0],"parents":[2147483647,0,0,1,1,2,2,4,4,5,5,6,6,7,7,8,8,9,9,10,10,11,11,13,13,14,14,15,15,17,17,18,18,19,19,21,21,22,22,23,23,25,25,26,26,28,28,31,31,32,32,33,33,34,34,35,35,36,36,37,37,38,38,39,39,43,43,47,47,48,48,50,50,53,53,56,56,57,57,58,58,61,61,63,63,67,67,68,68,69,69,70,70,75,75,78,78,79,79,80,80,81,81,82,82,84,84,86,86,88,88,89,89,90,90,91,91,92,92,103,103,105,105,107,107,108,108,111,111,113,113,114,114,115,115,117,117,118,118,123,123,125,125,126,126,127,127,129,129,130,130,133,133,141,141,144,144,151,151,154,154,155,155,156,156,158,158],"right_children":[2,4,6,-1,8,10,12,14,16,18,20,22,-1,24,26,28,-1,30,32,34,-1,36,38,40,-1,42,44,-1,46,-1,-1,48,50,52,54,56,58,60,62,64,-1,-1,-1,66,-1,-1,-1,68,70,-1,72,-1,-1,74,-1,-1,76,78,80,-1,-1,82,-1,84,-1,-1,-1,86,88,90,92,-1,-1,-1,-1,94,-1,-1,96,98,100,102,104,-1,106,-1,108,-1,110,112,114,116,118,-1,-1,-1,-1,-1,-1,-1,-1,-1,-1,120,-1,122,-1,124,126,-1,-1,128,-1,130,132,134,-1,136,138,-1,-1,-1,-1,140,-1,142,144,146,-1,148,150,-1,-1,152,-1,-1,-1,-1,-1,-1,-1,154,-1,-1,156,-1,-1,-1,-1,-1,-1,158,-1,-1,160,162,164,-1,166,-1,-1,-1,-1,-1,-1,-1,-1],"split_conditions":[9.2E1,2.840451E0,2E0,-3.2075635E-1,8.6E1,3E0,1.16E2,1.633E3,2E0,6.4851743E-1,1.14E2,2.722591E0,3.2205135E-1,1.493E3,8.2E1,9.2599E4,2.7503446E-1,1.65E2,7.1689124E0,1.6152558E0,3.1453604E-1,1.06E2,3E0,9.4378E4,2.5458685E-1,4.514E3,2.5E1,1.9074054E-1,3.6825802E0,-2.977681E-1,-1.2383967E-2,3.3179379E0,3.901E3,1.09E2,4.24955E0,9.3904E4,1E0,3.6E1,3E0,9.4012E4,-2.4688794E-1,-2.956118E-1,-6.078311E-2,9.1367E4,8.429832E-2,4.967216E-2,-2.1858115E-1,5.7E1,2E0,-3.0140814E-1,1.63E2,-2.2901164E-1,6.479305E-2,3.1E1,-5.994865E-2,-2.8735065E-1,2.399E3,3.3E1,2.416E3,3.1079644E-1,-1.3165611E-1,9.3945E4,2.5268087E-1,9.64E2,2.187276E-1,-3.0423215E-2,-2.411048E-1,6E0,1.34E2,4.8E1,5.9921284E0,-1.8677695E-1,7.055027E-2,-3.0989265E-2,3.3357483E-1,1.01E2,-2.2162043E-1,-9.643274E-2,5.2E1,9.64E2,2.4E1,3.858E3,1.05E2,-2.6792812E-1,1.287E3,-2.64728E-1,1.169E3,-3.0143762E-1,2E0,9.5821E4,9.2599E4,4.505674E0,9.414E4,-9.0992235E-2,4.3296255E-2,2.4127826E-1,-1.0338593E-2,-2.3607235E-1,1.9862102E-1,-2.610339E-1,-6.466481E-2,-3.622097E-1,1.6152551E-2,9.43E4,2.2891971E-1,2E0,-1.828661E-1,9.5025E4,2.57E3,-2.2570634E-1,1.1452442E-1,1.07E2,1.4097196E-1,3.5E1,3.059E3,4.3333335E0,3.0912188E-1,3.901E3,1.8E1,1.8532321E-1,-2.0435695E-1,-3.7952103E-2,1.9318463E-1,1.13E2,5.5530343E-2,1E0,9.0258E4,4.1E1,-2.9421717E-1,4.892458E0,1.13E2,-2.1926244E-1,1.1356657E-1,5.6E1,-1.1067097E-1,-2.3872353E-1,1.63569E-2,2.138339E-1,-6.403278E-2,-7.669555E-2,-2.793379E-1,2E0,-8.096486E-2,-2.1126862E-1,9.1423E4,-1.4089048E-1,1.2691729E-1,2.9237664E-1,4.8231345E-2,1.2396403E-1,-1.3451669E-1,3.4E2,-4.496626E-2,5.3753335E-2,2.191E3,1.43E2,4.439E3,3.2649696E-2,9.2072E4,3.384142E-1,9.779926E-2,2.3301922E-1,5.5407517E-2,-2.4219206E-1,8.325593E-2,4.8971854E-2,2.7814993E-1],"split_indices":[3,6,7,0,3,5,3,0,5,6,3,6,0,0,3,4,0,3,6,6,0,3,7,4,0,0,2,0,6,0,0,6,0,3,6,4,11,2,5,4,0,0,0,4,0,0,0,1,5,0,3,0,0,1,0,0,0,1,0,0,0,4,0,0,0,0,0,2,3,1,6,0,0,0,0,3,0,0,1,0,2,0,3,0,0,0,0,0,5,4,4,6,4,0,0,0,0,0,0,0,0,0,0,4,0,8,0,4,0,0,0,3,0,2,0,6,0,0,2,0,0,0,0,3,0,12,4,1,0,6,3,0,0,1,0,0,0,0,0,0,0,5,0,0,4,0,0,0,0,0,0,0,0,0,0,3,0,0,4,0,0,0,0,0,0,0,0],"split_type":[0,0,0,0,0,0,0,0,0,0,0,0,0,0,0,0,0,0,0,0,0,0,0,0,0,0,0,0,0,0,0,0,0,0,0,0,0,0,0,0,0,0,0,0,0,0,0,0,0,0,0,0,0,0,0,0,0,0,0,0,0,0,0,0,0,0,0,0,0,0,0,0,0,0,0,0,0,0,0,0,0,0,0,0,0,0,0,0,0,0,0,0,0,0,0,0,0,0,0,0,0,0,0,0,0,0,0,0,0,0,0,0,0,0,0,0,0,0,0,0,0,0,0,0,0,0,0,0,0,0,0,0,0,0,0,0,0,0,0,0,0,0,0,0,0,0,0,0,0,0,0,0,0,0,0,0,0,0,0,0,0,0,0,0,0,0,0],"sum_hessian":[5.232838E2,1.9323737E2,3.3004645E2,1.6398831E2,2.9249056E1,1.4125072E2,1.8879575E2,2.3466833E1,5.782223E0,9.951272E1,4.1737995E1,5.0838417E1,1.3795732E2,1.2185452E1,1.128138E1,3.3854008E0,2.3968225E0,7.8061314E0,9.170659E1,1.1486752E1,3.0251242E1,2.3671412E1,2.7167007E1,9.914741E0,2.2707121E0,6.886546E0,4.3948336E0,1.0855668E0,2.299834E0,6.724843E0,1.0812882E0,8.416799E1,7.538601E0,2.7163768E0,8.770375E0,9.757691E0,1.391372E1,1.7926292E1,9.240715E0,8.300123E0,1.6146175E0,5.804131E0,1.0824152E0,2.4922297E0,1.9026039E0,1.0926015E0,1.2072325E0,3.7151154E1,4.7016834E1,5.3536344E0,2.1849666E0,1.5067348E0,1.2096418E0,7.0460486E0,1.7243265E0,5.034225E0,4.7234664E0,7.5643315E0,6.349389E0,1.6410267E1,1.5160257E0,6.7978387E0,2.442876E0,6.3689704E0,1.9311527E0,1.0158908E0,1.4763387E0,2.8489443E1,8.661712E0,2.2992834E1,2.4024E1,1.0533756E0,1.1315911E0,1.7480475E0,5.2980013E0,2.7320755E0,1.9913907E0,1.4606718E0,6.1036596E0,3.1594632E0,3.1899257E0,2.12504E0,4.6727986E0,2.317982E0,4.050988E0,4.4109926E0,2.407845E1,5.6836944E0,2.978017E0,1.2334924E1,1.065791E1,1.6368916E1,7.655084E0,1.0922601E0,1.6398153E0,4.1083245E0,1.995335E0,1.3985966E0,1.7608666E0,1.3842039E0,1.8057218E0,1.0980946E0,1.0269454E0,2.9022853E0,1.7705133E0,2.7344513E0,1.316537E0,4.821624E0,1.9256826E1,1.5576062E0,1.4204109E0,1.1057484E1,1.2774396E0,8.3780775E0,2.279833E0,9.706703E0,6.662213E0,4.698785E0,2.956299E0,1.0873586E0,1.8149267E0,1.0127052E0,1.7217462E0,3.738559E0,1.0830647E0,8.767932E0,1.04888935E1,2.3223798E0,8.735105E0,5.6286335E0,2.7494445E0,1.1681978E0,1.1116353E0,7.7379537E0,1.9687498E0,3.0994217E0,1.5993633E0,1.0407821E0,1.915517E0,1.0883878E0,2.650171E0,7.682104E0,1.0858283E0,1.9179412E0,8.570952E0,1.2882073E0,1.0341724E0,4.1883335E0,1.4402997E0,1.6681168E0,1.0813277E0,6.451096E0,1.286858E0,1.8767625E0,5.8053417E0,3.3111615E0,5.259791E0,1.1696478E0,5.281448E0,3.7975361E0,2.0078056E0,2.1275973E0,1.1835642E0,3.212737E0,2.0470536E0,1.0763742E0,4.205074E0],"tree_param":{"num_deleted":"0","num_feature":"13","num_nodes":"167","size_leaf_vector":"1"}},{"base_weights":[-1.06297685E-2,-9.376223E-1,4.5943245E-1,-1.0298395E0,-1.6920055E-1,8.1736E-2,7.6312906E-1,-3.164845E-1,-6.376086E-1,2.9638603E-1,-5.229543E-1,-1.9528088E-1,8.045854E-1,1.5509519E-1,3.146533E-1,-2.7326882E-1,9.263671E-3,5.58384E-1,-1.09871335E-1,-2.4911764E-1,-1.0721959E-1,-2.634543E-1,3.7977836E-1,3.1388482E-1,3.0496335E-1,-3.3609128E-1,6.4290994E-1,1.8261945E-1,-1.9302148E-1,-5.86601E-2,2.844827E-1,1.3309339E-1,-1.7285396E-1,-1.5885231E-1,-7.1604496E-1,6.0191745E-1,-1.316833E-1,-4.189408E-1,5.9474427E-1,-7.747944E-1,5.761753E-2,9.0282977E-1,1.15544714E-1,-8.327111E-1,-8.858638E-2,-9.290308E-1,-2.5054806E-1,8.203055E-2,2.5956172E-1,-2.1417883E-1,1.2737188E-1,-2.2461495E-1,5.4671492E-2,8.004556E-1,-4.397439E-2,-8.414942E-1,-3.4454888E-1,4.4418582E-1,-2.418473E-1,3.1498718E-1,-1.0665303E-1,-1.5986323E-1,2.3073977E-1,-2.7045867E-1,-7.650397E-2,-3.8170636E-2,-2.6584786E-1,-1.0363869E-1,-3.0232286E-1,1.6970232E-1,-2.3033498E-1,9.370156E-2,-4.3606296E-2,-2.5030943E-2,3.287097E-1,-2.858057E-1,-7.619046E-2,-1.8528593E-1,3.060722E-2,-4.207258E-2,5.903195E-1,-4.5568314E-1,2.5866184E-1,-2.8834307E-1,2.9851446E-1,1.6001891E-2,-2.3365642E-1,-1.1413287E-1,1.3896364E-1,2.1236807E-1,1.7885258E-2,-2.2614314E-1,-1.4078885E-1,1.6251127E-1,-4.5322333E-2,2.0505948E-1,-1.8935154E-1,-1.8756595E-1,1.8336292E-1,1.14865094E-1,-4.1824338E-1,-1.5768364E-1,8.004606E-2,-5.891473E-1,1.3697941E-2,2.460059E-1,-2.0426424E-1,-1.7863337E-2,-1.8400088E-1,-8.296868E-1,9.002386E-2,2.2560103E-1,-4.2271933E-1,7.586095E-2,7.198797E-1,-3.3962816E-2,-2.9395714E-1,-3.8913494E-1,4.910544E-1,-2.5278705E-1,3.0438868E-2,2.8707078E-1,-2.1487898E-1,7.22928E-2,8.096122E-1,4.705337E-2,-2.2808221E-1,1.9024535E-1,-7.256285E-2,-8.688893E-2,9.6461974E-2,-1.4337628E-1,1.5193595E-1,7.788266E-2,-2.1848252E-1,3.1157918E-2,2.8105462E-1],"categories":[],"categories_nodes":[],"categories_segments":[],"categories_sizes":[],"default_left":[0,0,0,0,0,0,0,0,0,0,0,0,0,0,0,0,0,0,0,0,0,0,0,0,0,0,0,0,0,0,0,0,0,0,0,0,0,0,0,0,0,0,0,0,0,0,0,0,0,0,0,0,0,0,0,0,0,0,0,0,0,0,0,0,0,0,0,0,0,0,0,0,0,0,0,0,0,0,0,0,0,0,0,0,0,0,0,0,0,0,0,0,0,0,0,0,0,0,0,0,0,0,0,0,0,0,0,0,0,0,0,0,0,0,0,0,0,0,0,0,0,0,0,0,0,0,0,0,0,0,0,0,0,0,0,0,0],"id":7,"left_children":[1,3,5,7,9,11,13,-1,15,17,19,21,23,25,-1,-1,27,29,-1,-1,31,33,35,37,-1,39,41,-1,-1,-1,-1,-1,-1,43,45,47,49,51,53,55,57,59,61,63,65,67,69,71,-1,-1,-1,-1,-1,73,-1,75,77,79,81,-1,-1,83,-1,-1,-1,85,-1,-1,-1,87,-1,-1,-1,-1,-1,-1,-1,-1,-1,-1,89,91,93,-1,95,97,-1,-1,-1,-1,-1,-1,99,-1,-1,-1,101,103,105,-1,107,-1,-1,109,111,113,-1,-1,-1,115,-1,117,119,121,123,-1,-1,125,127,-1,129,131,133,-1,135,-1,-1,-1,-1,-1,-1,-1,-1,-1,-1,-1,-1],"loss_changes":[1.8370976E2,9.877533E0,3.2027637E1,5.7273865E-1,2.8554416E0,2.5349356E1,2.6756233E1,0E0,1.8002682E0,1.544261E0,1.1480131E0,3.6973119E0,3.3265476E0,1.2366296E1,0E0,0E0,1.9567813E0,1.9275217E0,0E0,0E0,1.615194E0,3.7978024E0,1.2307127E0,2.723133E0,0E0,4.5222235E0,3.4300995E0,0E0,0E0,0E0,0E0,0E0,0E0,3.1648111E0,1.2767859E0,9.207618E-1,1.5627812E0,9.130209E-1,1.5055215E0,6.391525E-2,1.796796E0,3.5438013E0,1.8617159E0,2.2133827E-2,2.5017533E0,1.1473656E-1,1.4668684E0,2.308087E-1,0E0,0E0,0E0,0E0,0E0,1.991343E0,0E0,4.101596E-1,4.713269E-1,6.5694034E-1,1.0672534E0,0E0,0E0,3.0870743E0,0E0,0E0,0E0,2.4341516E0,0E0,0E0,0E0,8.562666E-1,0E0,0E0,0E0,0E0,0E0,0E0,0E0,0E0,0E0,0E0,3.053447E-1,5.113379E-1,4.6376592E-1,0E0,1.1836853E0,1.9838573E0,0E0,0E0,0E0,0E0,0E0,0E0,8.03558E-1,0E0,0E0,0E0,6.401086E-1,2.1347E0,1.8949945E0,0E0,1.9949347E-1,0E0,0E0,2.1327658E0,1.8066546E0,2.4034457E0,0E0,0E0,0E0,6.6348696E-1,0E0,2.3301854E0,1.2427473E0,1.507831E0,1.4596272E-1,0E0,0E0,1.0333798E0,1.1599481E0,0E0,4.696787E-1,2.6031535E0,2.7423143E0,0E0,4.6486425E-1,0E0,0E0,0E0,0E0,0E0,0E0,0E0,0E0,0E0,0E0,0E0,0E0],"parents":[2147483647,0,0,1,1,2,2,3,3,4,4,5,5,6,6,8,8,9,9,10,10,11,11,12,12,13,13,16,16,17,17,20,20,21,21,22,22,23,23,25,25,26,26,33,33,34,34,35,35,36,36,37,37,38,38,39,39,40,40,41,41,42,42,43,43,44,44,45,45,46,46,47,47,53,53,55,55,56,56,57,57,58,58,61,61,65,65,69,69,80,80,81,81,82,82,84,84,85,85,92,92,96,96,97,97,98,98,100,100,103,103,104,104,105,105,109,109,111,111,112,112,113,113,114,114,117,117,118,118,120,120,121,121,122,122,124,124],"right_children":[2,4,6,8,10,12,14,-1,16,18,20,22,24,26,-1,-1,28,30,-1,-1,32,34,36,38,-1,40,42,-1,-1,-1,-1,-1,-1,44,46,48,50,52,54,56,58,60,62,64,66,68,70,72,-1,-1,-1,-1,-1,74,-1,76,78,80,82,-1,-1,84,-1,-1,-1,86,-1,-1,-1,88,-1,-1,-1,-1,-1,-1,-1,-1,-1,-1,90,92,94,-1,96,98,-1,-1,-1,-1,-1,-1,100,-1,-1,-1,102,104,106,-1,108,-1,-1,110,112,114,-1,-1,-1,116,-1,118,120,122,124,-1,-1,126,128,-1,130,132,134,-1,136,-1,-1,-1,-1,-1,-1,-1,-1,-1,-1,-1,-1],"split_conditions":[8.6E1,3.0315034E0,2E0,1.93E2,3.5733228E0,3E0,1.16E2,-3.164845E-1,2.410253E0,4E0,8.2E1,1E0,1.14E2,2.840451E0,3.146533E-1,-2.7326882E-1,1.67E3,3.2274976E0,-1.09871335E-1,-2.4911764E-1,8.4E1,1E0,1E0,1.6152558E0,3.0496335E-1,1.06E2,3E0,1.8261945E-1,-1.9302148E-1,-5.86601E-2,2.844827E-1,1.3309339E-1,-1.7285396E-1,6.4851743E-1,3.538E3,4.9E1,3.3179379E0,1.09E2,5.8E1,1.03E2,1.12E2,3.6E1,3E0,4.357E3,1.88E2,1.05E2,1E0,1.36E2,2.5956172E-1,-2.1417883E-1,1.2737188E-1,-2.2461495E-1,5.4671492E-2,3.1E1,-4.397439E-2,5.8E1,9.4309E4,3.4E1,9.4545E4,3.1498718E-1,-1.0665303E-1,9.3945E4,2.3073977E-1,-2.7045867E-1,-7.650397E-2,1E0,-2.6584786E-1,-1.0363869E-1,-3.0232286E-1,3.5101235E0,-2.3033498E-1,9.370156E-2,-4.3606296E-2,-2.5030943E-2,3.287097E-1,-2.858057E-1,-7.619046E-2,-1.8528593E-1,3.060722E-2,-4.207258E-2,5.4E1,4.2E1,1E0,-2.8834307E-1,9.4378E4,2E0,-2.3365642E-1,-1.1413287E-1,1.3896364E-1,2.1236807E-1,1.7885258E-2,-2.2614314E-1,5E1,1.6251127E-1,-4.5322333E-2,2.0505948E-1,4E1,4.3E1,7.4E0,1.14865094E-1,9E-1,-1.5768364E-1,8.004606E-2,9.5192E4,9.2599E4,1.56E2,-2.0426424E-1,-1.7863337E-2,-1.8400088E-1,2.9282477E0,9.002386E-2,2.9282477E0,1.32E2,9.3003E4,1.538E3,-3.3962816E-2,-2.9395714E-1,5.3E1,6.8E0,-2.5278705E-1,9.5054E4,9.0258E4,1E0,7.22928E-2,3.2E1,4.705337E-2,-2.2808221E-1,1.9024535E-1,-7.256285E-2,-8.688893E-2,9.6461974E-2,-1.4337628E-1,1.5193595E-1,7.788266E-2,-2.1848252E-1,3.1157918E-2,2.8105462E-1],"split_indices":[3,6,7,8,6,5,3,0,6,5,3,10,3,6,0,0,0,6,0,0,3,12,9,6,0,3,7,0,0,0,0,0,0,6,0,1,6,3,1,3,3,2,5,0,3,3,11,3,0,0,0,0,0,1,0,1,4,1,4,0,0,4,0,0,0,9,0,0,0,6,0,0,0,0,0,0,0,0,0,0,1,1,11,0,4,5,0,0,0,0,0,0,1,0,0,0,1,1,6,0,6,0,0,4,4,3,0,0,0,6,0,6,3,4,0,0,0,1,6,0,4,4,11,0,1,0,0,0,0,0,0,0,0,0,0,0,0],"split_type":[0,0,0,0,0,0,0,0,0,0,0,0,0,0,0,0,0,0,0,0,0,0,0,0,0,0,0,0,0,0,0,0,0,0,0,0,0,0,0,0,0,0,0,0,0,0,0,0,0,0,0,0,0,0,0,0,0,0,0,0,0,0,0,0,0,0,0,0,0,0,0,0,0,0,0,0,0,0,0,0,0,0,0,0,0,0,0,0,0,0,0,0,0,0,0,0,0,0,0,0,0,0,0,0,0,0,0,0,0,0,0,0,0,0,0,0,0,0,0,0,0,0,0,0,0,0,0,0,0,0,0,0,0,0,0,0,0],"sum_hessian":[4.1961148E2,1.4085056E2,2.7876093E2,1.25454704E2,1.5395848E1,1.2480928E2,1.5395163E2,1.1631889E2,9.135812E0,6.717241E0,8.678607E0,9.075802E1,3.405126E1,4.9708733E1,1.042429E2,6.135543E0,3.000269E0,4.9266024E0,1.7906387E0,4.415738E0,4.262869E0,8.162341E1,9.134608E0,1.102001E1,2.3031252E1,2.4923744E1,2.4784988E1,1.5989618E0,1.4013071E0,1.8492583E0,3.077344E0,1.9850787E0,2.2777903E0,6.739758E1,1.4225828E1,6.245285E0,2.8893228E0,2.917072E0,8.102939E0,1.1330463E1,1.3593282E1,1.6125387E1,8.659601E0,5.339573E0,6.205801E1,9.076938E0,5.14889E0,2.5404646E0,3.7048206E0,1.2731906E0,1.6161321E0,1.7252669E0,1.1918051E0,6.280416E0,1.8225223E0,8.98214E0,2.3483233E0,5.7227397E0,7.870542E0,1.4585611E1,1.5397755E0,6.6238565E0,2.035745E0,4.2703204E0,1.0692525E0,5.9354015E1,2.7039945E0,1.7192711E0,7.357667E0,3.211484E0,1.9374062E0,1.0765071E0,1.4639575E0,1.7521808E0,4.528235E0,7.0301394E0,1.9520001E0,1.219563E0,1.1287603E0,1.1527803E0,4.569959E0,5.5772834E0,2.2932587E0,2.0112302E0,4.612626E0,5.6220528E1,3.1334896E0,1.0142401E0,2.1972437E0,3.467805E0,1.1021543E0,2.1489267E0,3.4283564E0,1.1658317E0,1.1274271E0,2.353898E0,2.2587283E0,2.5311914E1,3.0908613E1,1.0557426E0,2.372614E0,1.2126305E0,1.0460978E0,7.8071294E0,1.7504786E1,2.9486681E1,1.421932E0,1.2956446E0,1.0769691E0,6.197608E0,1.6095212E0,1.2108531E1,5.3962545E0,2.2550121E1,6.93656E0,1.3778101E0,4.819798E0,3.5112543E0,8.597277E0,2.3548052E0,3.0414495E0,1.3068816E1,9.481304E0,1.6761917E0,5.2603683E0,1.6545932E0,1.8566612E0,7.305693E0,1.2915834E0,1.4510542E0,1.5903952E0,2.6499372E0,1.04188795E1,5.1842647E0,4.2970395E0,1.080935E0,4.1794333E0],"tree_param":{"num_deleted":"0","num_feature":"13","num_nodes":"137","size_leaf_vector":"1"}},{"base_weights":[-1.49667775E-2,-8.218841E-1,4.464115E-1,-3.041666E-1,-1.051306E-1,9.259456E-2,7.595319E-1,2.6527768E-2,-2.3320678E-1,-1.351623E-1,7.543494E-1,1.5795533E-1,3.089625E-1,2.3127791E-1,-5.200358E-1,-4.2964253E-1,-3.4145806E-2,1.9744395E-1,2.9647785E-1,-2.8797075E-1,5.092573E-1,-1.6135125E-1,5.1786095E-1,-2.2646649E-1,-1.4090365E-1,-6.011357E-1,3.2286208E-2,1.1537773E-1,-4.7593918E-1,5.12433E-1,-2.5097784E-1,-1.1216932E-1,-2.6057857E-1,8.292057E-1,2.3057874E-1,4.0338922E-1,-5.123666E-1,-9.855663E-2,6.5055627E-1,-1.6197738E-1,1.145364E-1,-1.7167533E-2,-8.158638E-1,3.2486275E-1,-3.3806986E-1,3.1595203E-1,-1.5601572E-1,-6.7646176E-1,-2.8751956E-2,-2.5680523E-2,6.660135E-1,4.545794E-2,-1.764392E-1,-2.2782417E-1,1.1259848E-1,1.4747398E-2,2.775631E-1,3.7350452E-1,-1.8844649E-1,2.308979E-1,-6.875463E-2,-2.1261725E-1,-8.288363E-3,7.9352224E-1,-6.1697084E-2,-4.1813916E-1,1.5756018E-1,-2.6995617E-1,-3.9712164E-1,-2.9497838E-2,2.289487E-1,-1.5245582E-1,4.7499007E-3,4.8730254E-1,-4.8941362E-1,-3.7524578E-1,4.1744587E-1,-2.1717605E-1,-2.5957477E-1,-3.9418414E-1,1.6591303E-1,2.5963308E-2,2.4751866E-1,-3.324701E-1,3.4236103E-1,5.628672E-1,-1.4562435E-1,6.4321384E-2,8.655983E-1,4.7657818E-2,-2.200012E-1,5.2903216E-2,-2.114725E-1,2.0645359E-1,7.441597E-1,-2.3323984E-1,-8.329349E-2,-5.211832E-1,3.1831697E-1,-9.7638495E-2,2.414493E-1,1.2597388E-1,-2.1720578E-1,-3.7573095E-2,-1.4788362E-1,-1.86068E-1,9.375718E-2,5.703025E-1,-1.7123576E-1,8.056828E-1,1.8230301E-1,2.845844E-1,6.595107E-2,5.677433E-1,-1.6207507E-2,8.606907E-1,3.4677718E-2,1.2738092E-1,-1.8088186E-1,-1.772491E-1,-2.4452499E-1,1.4559802E-1,-7.395607E-4,-1.3452564E-1,6.998262E-2,-2.985814E-2,2.4165258E-1,-1.5932204E-1,8.288498E-2,2.633363E-1,7.2047226E-2,5.562306E-1,-1.06747515E-1,-7.001055E-2,2.58658E-1,3.1545252E-1,-4.6560147E-1,9.554964E-2,2.8510526E-1,-5.151622E-1,2.4716412E-1,2.0131098E-1,6.0337216E-2,5.8916885E-1,-9.304641E-2,-3.174809E-2,-1.8298008E-1,-4.5443657E-3,-2.1853644E-1,1.9136441E-1,-4.945405E-2,2.619935E-1,-1.2612897E-2],"categories":[],"categories_nodes":[],"categories_segments":[],"categories_sizes":[],"default_left":[0,0,0,0,0,0,0,0,0,0,0,0,0,0,0,0,0,0,0,0,0,0,0,0,0,0,0,0,0,0,0,0,0,0,0,0,0,0,0,0,0,0,0,0,0,0,0,0,0,0,0,0,0,0,0,0,0,0,0,0,0,0,0,0,0,0,0,0,0,0,0,0,0,0,0,0,0,0,0,0,0,0,0,0,0,0,0,0,0,0,0,0,0,0,0,0,0,0,0,0,0,0,0,0,0,0,0,0,0,0,0,0,0,0,0,0,0,0,0,0,0,0,0,0,0,0,0,0,0,0,0,0,0,0,0,0,0,0,0,0,0,0,0,0,0,0,0,0,0,0,0,0,0],"id":8,"left_children":[1,3,5,-1,7,9,11,13,-1,15,17,19,-1,21,23,25,27,29,-1,31,33,35,37,-1,39,41,43,45,47,49,51,53,-1,55,57,59,61,-1,63,-1,-1,65,67,69,71,73,75,77,79,-1,81,-1,-1,-1,83,-1,-1,85,-1,-1,-1,-1,-1,87,-1,89,-1,-1,91,-1,-1,-1,-1,93,95,97,99,101,-1,103,-1,-1,-1,105,107,109,-1,-1,111,-1,-1,-1,-1,113,115,-1,117,119,121,123,-1,-1,-1,-1,-1,-1,-1,125,127,129,131,-1,-1,133,135,137,-1,-1,-1,139,-1,-1,-1,-1,-1,-1,-1,-1,-1,-1,-1,141,-1,-1,-1,143,145,-1,-1,147,149,-1,-1,151,-1,-1,-1,-1,-1,-1,-1,-1,-1],"loss_changes":[1.2743189E2,1.7028534E1,2.4058292E1,0E0,2.4476297E0,1.5684838E1,1.8605408E1,2.7947118E0,0E0,2.2986457E0,3.27316E0,5.936949E0,0E0,2.117672E0,5.009475E-1,1.5860367E0,3.9516497E0,1.41747E0,0E0,1.6303186E0,1.6844168E0,1.8698612E0,1.4140615E0,0E0,1.0066998E0,1.8008246E0,7.928327E-1,2.4921932E0,1.3356097E0,5.7949007E-1,6.911348E-1,2.1427016E0,0E0,6.59039E-1,1.7845453E0,1.0511361E0,5.148269E-1,0E0,1.3352227E0,0E0,0E0,1.2879564E0,1.4061928E-2,8.2279074E-1,2.0502985E-1,3.8453116E0,2.638526E0,7.1286964E-1,1.4346846E0,0E0,3.562467E-1,0E0,0E0,0E0,1.2761889E0,0E0,0E0,2.1360917E0,0E0,0E0,0E0,0E0,0E0,1.6547155E-1,0E0,7.31429E-1,0E0,0E0,7.516466E-1,0E0,0E0,0E0,0E0,1.4371705E0,5.300081E-1,1.6647408E0,1.262455E0,1.7123429E0,0E0,4.7129154E-2,0E0,0E0,0E0,1.0062884E0,1.0329672E0,7.6310086E-1,0E0,0E0,1.7478228E-1,0E0,0E0,0E0,0E0,9.6795505E-1,7.160597E-1,0E0,1.1084148E0,1.1304924E0,1.7236784E-1,5.0375164E-1,0E0,0E0,0E0,0E0,0E0,0E0,0E0,9.8834157E-1,6.6604924E-1,2.2410393E-2,1.2298212E0,0E0,0E0,1.2797183E0,1.390807E0,1.463852E-1,0E0,0E0,0E0,1.1441054E0,0E0,0E0,0E0,0E0,0E0,0E0,0E0,0E0,0E0,0E0,0E0,4.2972565E-3,0E0,0E0,0E0,1.1071022E0,1.4045197E-1,0E0,0E0,4.4450033E-1,7.198413E-1,0E0,0E0,7.7207553E-1,0E0,0E0,0E0,0E0,0E0,0E0,0E0,0E0,0E0],"parents":[2147483647,0,0,1,1,2,2,4,4,5,5,6,6,7,7,9,9,10,10,11,11,13,13,14,14,15,15,16,16,17,17,19,19,20,20,21,21,22,22,24,24,25,25,26,26,27,27,28,28,29,29,30,30,31,31,33,33,34,34,35,35,36,36,38,38,41,41,42,42,43,43,44,44,45,45,46,46,47,47,48,48,50,50,54,54,57,57,63,63,65,65,68,68,73,73,74,74,75,75,76,76,77,77,79,79,83,83,84,84,85,85,88,88,93,93,94,94,96,96,97,97,98,98,99,99,107,107,108,108,109,109,110,110,113,113,114,114,115,115,119,119,131,131,135,135,136,136,139,139,140,140,143,143],"right_children":[2,4,6,-1,8,10,12,14,-1,16,18,20,-1,22,24,26,28,30,-1,32,34,36,38,-1,40,42,44,46,48,50,52,54,-1,56,58,60,62,-1,64,-1,-1,66,68,70,72,74,76,78,80,-1,82,-1,-1,-1,84,-1,-1,86,-1,-1,-1,-1,-1,88,-1,90,-1,-1,92,-1,-1,-1,-1,94,96,98,100,102,-1,104,-1,-1,-1,106,108,110,-1,-1,112,-1,-1,-1,-1,114,116,-1,118,120,122,124,-1,-1,-1,-1,-1,-1,-1,126,128,130,132,-1,-1,134,136,138,-1,-1,-1,140,-1,-1,-1,-1,-1,-1,-1,-1,-1,-1,-1,142,-1,-1,-1,144,146,-1,-1,148,150,-1,-1,152,-1,-1,-1,-1,-1,-1,-1,-1,-1],"split_conditions":[9.5E1,2.840451E0,2E0,-3.041666E-1,4.125263E0,3E0,1.16E2,3E0,-2.3320678E-1,2.2231815E0,1.14E2,2.410253E0,3.089625E-1,8.2E1,2E0,1.56E2,5.9921284E0,2.033E3,2.9647785E-1,5.9E1,2.431E3,1.4E1,9.22E2,-2.2646649E-1,8.2E1,9.136E4,1.73E2,2.57E3,3.901E3,3E1,9.3003E4,3.5E1,-2.6057857E-1,3.4E2,4E0,3.4E0,2E0,-9.855663E-2,1.31E2,-1.6197738E-1,1.145364E-1,9.0747E4,1.41E2,3.944E3,5.1E1,1E0,4.703508E0,1.078E3,5.2E1,-2.5680523E-2,9.2538E4,4.545794E-2,-1.764392E-1,-2.2782417E-1,9.2811E4,1.4747398E-2,2.775631E-1,1.69E2,-1.8844649E-1,2.308979E-1,-6.875463E-2,-2.1261725E-1,-8.288363E-3,3.0315034E0,-6.1697084E-2,1.21E2,1.5756018E-1,-2.6995617E-1,2.63E2,-2.9497838E-2,2.289487E-1,-1.5245582E-1,4.7499007E-3,2E0,1.091E3,1E0,2E0,6.9E0,-2.5957477E-1,1.6E1,1.6591303E-1,2.5963308E-2,2.4751866E-1,4.188E3,2.399E3,3E0,-1.4562435E-1,6.4321384E-2,5.8E1,4.7657818E-2,-2.200012E-1,5.2903216E-2,-2.114725E-1,4.71E2,3.32E2,-2.3323984E-1,1.618E3,1E0,3.059E3,9.0747E4,2.414493E-1,1.2597388E-1,-2.1720578E-1,-3.7573095E-2,-1.4788362E-1,-1.86068E-1,9.375718E-2,2E0,2.7E1,6E1,3.7E0,2.845844E-1,6.595107E-2,3.924448E0,1E0,7E2,3.4677718E-2,1.2738092E-1,-1.8088186E-1,2.4E1,-2.4452499E-1,1.4559802E-1,-7.395607E-4,-1.3452564E-1,6.998262E-2,-2.985814E-2,2.4165258E-1,-1.5932204E-1,8.288498E-2,2.633363E-1,7.2047226E-2,9.3023E4,-1.06747515E-1,-7.001055E-2,2.58658E-1,4.1E0,3.2E0,9.554964E-2,2.8510526E-1,3.1033356E0,5.7E1,2.0131098E-1,6.0337216E-2,3.8E1,-9.304641E-2,-3.174809E-2,-1.8298008E-1,-4.5443657E-3,-2.1853644E-1,1.9136441E-1,-4.945405E-2,2.619935E-1,-1.2612897E-2],"split_indices":[3,6,7,0,6,5,3,7,0,6,3,6,0,3,5,3,6,0,0,1,0,2,0,0,3,4,3,0,0,1,4,1,0,0,5,6,8,0,8,0,0,4,8,0,1,12,6,0,1,0,4,0,0,0,4,0,0,8,0,0,0,0,0,6,0,3,0,0,8,0,0,0,0,8,0,10,5,6,0,2,0,0,0,0,0,7,0,0,1,0,0,0,0,0,8,0,0,11,0,4,0,0,0,0,0,0,0,5,2,8,6,0,0,6,11,0,0,0,0,2,0,0,0,0,0,0,0,0,0,0,0,4,0,0,0,6,6,0,0,6,1,0,0,1,0,0,0,0,0,0,0,0,0],"split_type":[0,0,0,0,0,0,0,0,0,0,0,0,0,0,0,0,0,0,0,0,0,0,0,0,0,0,0,0,0,0,0,0,0,0,0,0,0,0,0,0,0,0,0,0,0,0,0,0,0,0,0,0,0,0,0,0,0,0,0,0,0,0,0,0,0,0,0,0,0,0,0,0,0,0,0,0,0,0,0,0,0,0,0,0,0,0,0,0,0,0,0,0,0,0,0,0,0,0,0,0,0,0,0,0,0,0,0,0,0,0,0,0,0,0,0,0,0,0,0,0,0,0,0,0,0,0,0,0,0,0,0,0,0,0,0,0,0,0,0,0,0,0,0,0,0,0,0,0,0,0,0,0,0],"sum_hessian":[3.4030273E2,1.2351047E2,2.1679227E2,9.708791E1,2.6422552E1,1.0239012E2,1.1440214E2,2.2898346E1,3.5242074E0,7.6765434E1,2.5624687E1,3.596217E1,7.843997E1,1.707767E1,5.820677E0,1.877626E1,5.7989178E1,8.12481E0,1.7499878E1,1.5926324E1,2.0035847E1,7.3900347E0,9.687634E0,2.9822397E0,2.8384368E0,1.3472991E1,5.303269E0,4.3877743E1,1.4111437E1,4.6886034E0,3.4362066E0,1.3140755E1,2.7855692E0,8.40763E0,1.1628217E1,2.7754579E0,4.614577E0,1.1129621E0,8.574673E0,1.5909454E0,1.2474915E0,3.9125333E0,9.560458E0,3.0313659E0,2.2719033E0,2.5136406E1,1.8741335E1,9.3887415E0,4.7226954E0,1.0484846E0,3.6401188E0,1.8172652E0,1.6189414E0,2.7740119E0,1.0366743E1,1.0870736E0,7.320556E0,1.04534235E1,1.1747935E0,1.6204635E0,1.1549942E0,2.9553509E0,1.6592261E0,7.4105215E0,1.164151E0,2.3811805E0,1.5313526E0,7.0062256E0,2.5542324E0,1.9369034E0,1.0944625E0,1.2399355E0,1.0319676E0,2.1052237E1,4.084168E0,1.3808209E1,4.933127E0,3.3614101E0,6.027331E0,3.0987837E0,1.6239114E0,1.1164917E0,2.5236273E0,3.3774104E0,6.989332E0,8.847522E0,1.6059012E0,1.2601507E0,6.1503706E0,1.0164603E0,1.3647203E0,1.0412469E0,1.5129856E0,1.0918098E1,1.0134139E1,1.8544619E0,2.229706E0,1.1613147E1,2.1950622E0,2.4386048E0,2.4945219E0,1.565336E0,1.7960742E0,1.4415071E0,1.6572767E0,2.3620217E0,1.0153887E0,4.764411E0,2.2249215E0,4.7193255E0,4.1281967E0,5.034208E0,1.1161627E0,3.5721393E0,7.3459587E0,8.237658E0,1.8964814E0,1.2200961E0,1.0096098E0,6.0897546E0,5.5233927E0,1.1061934E0,1.0888686E0,1.0113969E0,1.427208E0,1.388119E0,3.3762918E0,1.1297859E0,1.0951355E0,3.6959293E0,1.0233961E0,2.4158568E0,1.7123398E0,1.0158238E0,2.5563157E0,4.3981223E0,2.9478366E0,1.8149002E0,6.4227576E0,3.2713327E0,2.8184216E0,1.1533139E0,1.2625431E0,3.1000364E0,1.2980862E0,1.3402451E0,1.6075914E0,1.2984473E0,1.9728856E0,1.1652141E0,1.6532077E0,1.873241E0,1.2267953E0],"tree_param":{"num_deleted":"0","num_feature":"13","num_nodes":"153","size_leaf_vector":"1"}},{"base_weights":[-1.4084917E-2,-8.619899E-1,3.6219883E-1,-9.8409253E-1,-1.3561311E-1,4.8274465E-2,6.683707E-1,-3.0626693E-1,-4.923503E-1,7.272931E-2,-2.2690275E-1,-1.5663834E-1,7.0309883E-1,1.22670665E-1,3.043037E-1,-2.4289528E-1,7.907248E-2,2.919389E-1,-4.145198E-1,-2.1523064E-1,3.1252465E-1,2.6182693E-1,2.8830075E-1,-2.8562832E-1,5.1854295E-1,1.4918274E-1,-1.21873744E-1,4.9044898E-1,-1.1446478E-1,-2.3481195E-1,5.5991482E-2,-1.3099413E-1,-6.127741E-1,5.1887834E-1,-1.4316984E-1,-3.75797E-1,5.0315666E-1,-6.5044796E-1,7.782307E-3,7.705597E-1,1.0935516E-1,-1.7966162E-2,6.324023E-1,-2.176202E-1,-7.409627E-2,-7.571454E-1,-1.6532479E-2,7.579529E-2,2.2434355E-1,-1.8623646E-1,9.555482E-2,3.1720527E-2,-1.9935021E-1,7.223428E-1,-7.2741665E-2,-5.716528E-2,-7.265284E-1,2.726648E-1,-2.9996648E-1,2.8516713E-1,-8.863822E-2,-9.192445E-2,1.9839233E-1,2.4291287E-1,2.7558908E-1,-2.9854786E-2,-2.3433943E-1,-1.09792845E-2,-2.8199404E-1,-5.794101E-2,5.6811634E-2,7.1545E-2,-3.1529788E-2,-1.648182E-2,3.1207782E-1,-2.544549E-1,-5.9619598E-2,-6.2235985E-2,4.0388572E-1,-5.3733486E-1,1.0065034E-1,-5.8741176E-1,2.354468E-1,-1.6133662E-2,1.3959631E-1,-2.2390033E-1,1.2862529E-1,1.916974E-2,2.3287523E-1,-4.4652484E-2,-1.9086911E-1,8.8016935E-2,-4.395288E-2,3.366521E-2,-2.9021597E-1,-1.02430716E-1,4.6716997E-1,2.8744066E-1,-3.2224125E-1,2.3747703E-1,-2.69766E-1,-8.496077E-2,1.1462199E-1,2.3581627E-1,-7.665842E-2,-1.0432722E-1,1.894718E-1,-5.92608E-1,-1.4390868E-1,2.4893919E-2,6.734631E-1,-2.0593297E-1,-3.2224685E-2,-2.2765735E-1,-2.438672E-1,1.9007312E-1,-3.73347E-1,-2.247662E-1,1.5585084E-1,2.6883984E-1,8.068601E-1,-2.2775775E-1,9.860595E-2,1.0636394E-1,-1.9299944E-1,-2.4862266E-1,-1.068724E-1,3.1443956E-1,-3.7257493E-1,-2.2531936E-2,1.3801779E-1,2.726241E-1,6.2202513E-2,-1.4126359E-1,6.700816E-2,-7.743875E-2,1.20119475E-1,-1.4707239E-1,2.1715604E-2,1.6699854E-1,-3.9834507E-2,-1.8329668E-1,3.930454E-2],"categories":[],"categories_nodes":[],"categories_segments":[],"categories_sizes":[],"default_left":[0,0,0,0,0,0,0,0,0,0,0,0,0,0,0,0,0,0,0,0,0,0,0,0,0,0,0,0,0,0,0,0,0,0,0,0,0,0,0,0,0,0,0,0,0,0,0,0,0,0,0,0,0,0,0,0,0,0,0,0,0,0,0,0,0,0,0,0,0,0,0,0,0,0,0,0,0,0,0,0,0,0,0,0,0,0,0,0,0,0,0,0,0,0,0,0,0,0,0,0,0,0,0,0,0,0,0,0,0,0,0,0,0,0,0,0,0,0,0,0,0,0,0,0,0,0,0,0,0,0,0,0,0,0,0,0,0,0,0,0,0,0,0],"id":9,"left_children":[1,3,5,7,9,11,13,-1,15,17,-1,19,21,23,-1,-1,25,27,29,31,33,35,-1,37,39,-1,-1,41,-1,-1,-1,43,45,47,49,51,53,55,57,59,61,-1,63,-1,65,67,69,71,-1,-1,-1,-1,-1,73,-1,-1,75,77,79,-1,-1,81,-1,-1,83,85,-1,-1,-1,-1,-1,-1,-1,-1,-1,-1,-1,-1,87,89,91,93,95,-1,-1,97,99,101,-1,-1,-1,-1,-1,-1,-1,-1,103,105,107,109,111,-1,-1,-1,-1,-1,-1,113,115,117,119,-1,121,123,-1,-1,125,-1,127,129,131,133,-1,135,-1,-1,137,139,141,-1,-1,-1,-1,-1,-1,-1,-1,-1,-1,-1,-1,-1,-1],"loss_changes":[8.928439E1,7.495098E0,1.8599802E1,8.268509E-1,1.8057357E0,1.3097892E1,1.8389164E1,0E0,1.3416975E0,1.3010328E0,0E0,2.1163259E0,2.3945904E0,6.4818163E0,0E0,0E0,8.975551E-1,1.2842966E0,9.963149E-1,2.1586084E0,8.90825E-1,1.7203822E0,0E0,2.1389182E0,2.004027E0,0E0,0E0,5.672182E-1,0E0,0E0,0E0,1.8550488E0,9.7031546E-1,5.715289E-1,9.673705E-1,5.29688E-1,1.42485E0,1.7288876E-1,1.0630041E0,2.653799E0,1.0477613E0,0E0,1.2310529E-1,0E0,1.6227233E0,1.173615E0,1.5468444E-1,1.1990293E-1,0E0,0E0,0E0,0E0,0E0,1.5795522E0,0E0,0E0,2.9883647E-1,5.243452E-1,6.288364E-1,0E0,0E0,1.3366798E0,0E0,0E0,2.3329589E-1,1.5837398E0,0E0,0E0,0E0,0E0,0E0,0E0,0E0,0E0,0E0,0E0,0E0,0E0,8.2046413E-1,5.7180762E-2,1.9023138E-1,9.659953E-1,8.496171E-1,0E0,0E0,1.25402E0,1.2985684E0,5.3542876E-1,0E0,0E0,0E0,0E0,0E0,0E0,0E0,0E0,1.1469618E0,1.1494981E0,8.714061E-1,2.1047792E0,6.2887084E-1,0E0,0E0,0E0,0E0,0E0,0E0,4.2313576E-1,2.6049035E0,1.7819475E0,1.8597937E-1,0E0,4.4452697E-1,6.566557E-1,0E0,0E0,1.2318122E0,0E0,1.3638763E0,2.5490746E-1,1.23957634E-1,5.425926E-1,0E0,4.4707537E-1,0E0,0E0,5.860973E-1,1.3722239E0,5.473157E-1,0E0,0E0,0E0,0E0,0E0,0E0,0E0,0E0,0E0,0E0,0E0,0E0,0E0,0E0],"parents":[2147483647,0,0,1,1,2,2,3,3,4,4,5,5,6,6,8,8,9,9,11,11,12,12,13,13,16,16,17,17,18,18,19,19,20,20,21,21,23,23,24,24,27,27,31,31,32,32,33,33,34,34,35,35,36,36,37,37,38,38,39,39,40,40,42,42,44,44,45,45,46,46,47,47,53,53,56,56,57,57,58,58,61,61,64,64,65,65,78,78,79,79,80,80,81,81,82,82,85,85,86,86,87,87,96,96,97,97,98,98,99,99,100,100,107,107,108,108,109,109,110,110,112,112,113,113,116,116,118,118,119,119,120,120,121,121,123,123,126,126,127,127,128,128],"right_children":[2,4,6,8,10,12,14,-1,16,18,-1,20,22,24,-1,-1,26,28,30,32,34,36,-1,38,40,-1,-1,42,-1,-1,-1,44,46,48,50,52,54,56,58,60,62,-1,64,-1,66,68,70,72,-1,-1,-1,-1,-1,74,-1,-1,76,78,80,-1,-1,82,-1,-1,84,86,-1,-1,-1,-1,-1,-1,-1,-1,-1,-1,-1,-1,88,90,92,94,96,-1,-1,98,100,102,-1,-1,-1,-1,-1,-1,-1,-1,104,106,108,110,112,-1,-1,-1,-1,-1,-1,114,116,118,120,-1,122,124,-1,-1,126,-1,128,130,132,134,-1,136,-1,-1,138,140,142,-1,-1,-1,-1,-1,-1,-1,-1,-1,-1,-1,-1,-1,-1],"split_conditions":[8.6E1,3.0315034E0,2E0,1.93E2,3.924448E0,3E0,1.16E2,-3.0626693E-1,2.410253E0,4E0,-2.2690275E-1,1E0,1.14E2,2.722591E0,3.043037E-1,-2.4289528E-1,2.23E2,3E0,9.4302E4,1E0,1E0,1.6152558E0,2.8830075E-1,1.06E2,3E0,1.4918274E-1,-1.21873744E-1,3.2274976E0,-1.1446478E-1,